%YAML:1.0
---
opencv_ml_ann_mlp:
   format: 3
   layer_sizes: [ 18, 28, 56, 112, 28, 7 ]
   activation_function: SIGMOID_SYM
   f_param1: 6.6666666666666663e-01
   f_param2: 1.7159000000000000e+00
   min_val: -9.4999999999999996e-01
   max_val: 9.4999999999999996e-01
   min_val1: -9.7999999999999998e-01
   max_val1: 9.7999999999999998e-01
   training_params:
      train_method: RPROP
      dw0: 1.
      dw_plus: 1.2000000000000000e+00
      dw_minus: 5.0000000000000000e-01
      dw_min: 0.
      dw_max: 50.
      term_criteria:
         epsilon: 1.0000000000000000e-03
         iterations: 10
   input_scale:
      - 5.8880145012472837e-20
      - -1.2874366672113549e-01
      - 1.2613062576238930e+01
      - -3.8526466531330890e+01
      - 6.1139650998250693e-20
      - -1.9097737445881204e-02
      - 1.1516829834708204e+01
      - -3.4804537751360186e+01
      - 5.5232783634344108e-20
      - -1.0391868981061921e-22
      - 1.0414457138570691e+01
      - -3.2860426878768699e+01
      - 5.7908866428474687e-20
      - -2.2108241626814185e-02
      - 1.1502716075963271e+01
      - -3.6454554400697866e+01
      - 5.4928832234473870e-20
      - -2.4783359240756111e-02
      - 1.2261388689495112e+01
      - -3.9616869707457106e+01
      - 5.7732133213000622e-20
      - -5.4100069478188711e-02
      - 1.3546127319942206e+01
      - -4.5187641037169328e+01
      - 5.3534257887646273e-20
      - -4.2734249015758584e-02
      - 1.2226831101976583e+01
      - -4.2469444051516142e+01
      - 5.5781139034412048e-20
      - 5.8079796570525439e-03
      - 1.2968806168215668e+01
      - -4.3258180431381184e+01
      - 5.5235422383915175e-20
      - -6.3262750925941538e-02
      - 8.9170620203461031e+00
      - -2.5833618407432546e+01
   output_scale:
      - 5.2631578947368418e-01
      - 4.9999999999999994e-01
      - 5.2631578947368418e-01
      - 4.9999999999999994e-01
      - 5.2631578947368418e-01
      - 4.9999999999999994e-01
      - 5.2631578947368418e-01
      - 4.9999999999999994e-01
      - 5.2631578947368418e-01
      - 4.9999999999999994e-01
      - 5.2631578947368418e-01
      - 4.9999999999999994e-01
      - 5.2631578947368418e-01
      - 4.9999999999999994e-01
   inv_output_scale:
      - 1.8999999999999999e+00
      - -9.4999999999999996e-01
      - 1.8999999999999999e+00
      - -9.4999999999999996e-01
      - 1.8999999999999999e+00
      - -9.4999999999999996e-01
      - 1.8999999999999999e+00
      - -9.4999999999999996e-01
      - 1.8999999999999999e+00
      - -9.4999999999999996e-01
      - 1.8999999999999999e+00
      - -9.4999999999999996e-01
      - 1.8999999999999999e+00
      - -9.4999999999999996e-01
   weights:
      -
         - 3.2517649336040315e+00
         - -1.8813039875350643e+00
         - -2.0546507035049140e+00
         - 2.4681623741568246e+00
         - 7.3287381493986625e-01
         - -4.9747263334932139e+00
         - 2.4327429492764248e+00
         - -7.7997486154070206e-01
         - 3.3312870996181139e+00
         - -9.6338547653561624e-01
         - -3.2978910554680789e+00
         - 4.9320162502432616e+00
         - 1.0733872994752001e+00
         - 9.5486085546897015e-01
         - -4.1825951316515209e+00
         - -2.3750514699548906e+00
         - -2.2627840256758263e+00
         - 8.7027865968569849e+00
         - 1.9615201997070788e+00
         - 3.0304781072161067e+00
         - 6.3322029104258626e-01
         - -1.7998214034122506e+00
         - 9.2468838676362075e-01
         - 8.3295968734898747e+00
         - 6.4927539227185953e+00
         - 1.1504852273290309e+00
         - 1.1282672324266536e+00
         - -3.5895734615254176e+00
         - 6.9394709193212600e-01
         - 4.6149196082213795e-01
         - 4.3980178967671764e+00
         - -4.6814710686978849e+00
         - -1.4261477707005910e+00
         - -1.6191771787824079e+00
         - -9.3575022902464278e-01
         - 3.4352256568727633e+00
         - -1.6007739764334505e+00
         - 7.5290008900604721e-01
         - 1.6325954974815593e-02
         - 6.0717664419461881e-01
         - -3.5370428161282508e+00
         - 1.6591042729900823e-01
         - -2.1083341908959263e+00
         - 1.0078927197314100e+00
         - 4.7244616281232416e-02
         - 3.0189490465168713e+00
         - 1.3489898579528661e+00
         - -9.5061330718375334e+00
         - -1.9643836240159562e+00
         - -3.5859907600138818e+00
         - 1.0292576430569855e+00
         - 1.1992163612918487e+00
         - -1.3332654951838858e+00
         - -3.2226943846855791e+00
         - -9.4904345312761762e-01
         - 1.1009742121728716e+00
         - -4.8898105609688383e+00
         - 8.5348747835595817e-01
         - 4.7471445333817961e+00
         - -5.6235864709988448e+00
         - 4.8106350024711428e+00
         - 3.5544083501155010e-03
         - 7.3966768060114374e-02
         - -2.3773125016796466e+00
         - -5.6870950734522090e+00
         - -1.1049386771727692e+00
         - 2.0680954327073438e+00
         - 6.9172966855813167e-01
         - 2.8859655908424617e+00
         - 1.0172449498485221e+00
         - -3.7063861035344665e+00
         - -1.1450427419593738e+00
         - 1.4504935864434776e+00
         - 3.3650187713302726e-01
         - -4.6382002935362127e-01
         - -2.5313617121417540e+00
         - -9.3435903772786109e+00
         - 1.8895276916589934e-01
         - -4.9220201100076100e+00
         - -4.5716600188238976e-02
         - -7.6971244540059580e-01
         - -2.8451929280570916e+00
         - 4.1028081406661157e+00
         - 3.7311873247867000e-01
         - 1.6057006943768817e+00
         - 8.8321507108988018e-01
         - 4.2582745974159151e+00
         - -1.2421715949663843e+00
         - -2.4658933468255623e-02
         - -1.8371043138766285e+00
         - -1.6154571895184842e+00
         - 1.4752565451961091e+01
         - -4.7681693023040292e+00
         - 2.8847766187514670e+00
         - 1.0987055439242563e+00
         - 2.6530911383052733e+00
         - -5.4684713019225395e+00
         - -1.4496913242880503e+00
         - -1.9494840371190112e+00
         - 6.7742914053983705e-01
         - 1.9609632192193893e+00
         - 3.2372697574056164e+00
         - -1.8028044743984708e+00
         - -8.6027224058093772e+00
         - 3.0464246280266121e+00
         - -5.1947914654841760e+00
         - 8.2410054097806407e-01
         - 5.8094918262421746e-01
         - -1.7978022905018496e+00
         - -7.4518630982051617e+00
         - -1.0145881511749328e+00
         - 6.2594818582861300e-01
         - -6.3003482706289471e-01
         - 4.7494175999151835e+00
         - -1.1801783558887380e+00
         - 1.3169692844254344e+00
         - 8.8449800949498536e-01
         - 4.0274589185846421e-01
         - -2.4219339738834993e+00
         - 2.8495082476392084e+00
         - -2.6853892862216955e-01
         - 1.0677209366548104e-02
         - 2.3069682668780369e+00
         - 1.1820603847832054e+00
         - 9.3728265416862264e+00
         - -6.6025140032184773e+00
         - 4.1194215051889547e+00
         - 4.7438331238047243e-01
         - 3.8727772410065762e+00
         - -2.6241307349347709e-02
         - 9.7565307007376689e-01
         - -9.2004109217080937e-02
         - -3.7855387800810858e-01
         - 1.3374654161061561e+00
         - -1.4012484353136823e+00
         - 4.7562162558441340e-02
         - 6.8958537142393056e-02
         - -3.0422976775342274e+00
         - -1.4094985773196722e+00
         - 2.5546324411652641e+00
         - 7.3813278859832856e+00
         - 1.9891797882729665e+00
         - -1.8687795058124421e+00
         - -4.1540136453636523e-02
         - 6.5771460449864774e-02
         - -3.5807838055225014e+00
         - -1.1178445548912124e+00
         - -3.7577078617353119e+00
         - 6.4183698721053495e-01
         - 4.8813349566448938e-01
         - 6.6075756977396916e-01
         - 4.4233323275791809e+00
         - -1.2224405036567083e+00
         - 1.1331792344467480e+00
         - 4.7301740698182093e-01
         - 4.7276622665808734e+00
         - 4.7895053986620861e-01
         - 5.7088187142012838e+00
         - -7.9364881570254209e-01
         - -2.8808355512447092e-02
         - 4.9920071561592294e-01
         - -4.1124852371955241e+00
         - 4.7877109478288729e+00
         - -3.0321922305859763e+00
         - -4.6460638370412468e+00
         - -2.3877082409930641e+00
         - -1.7645375432861801e+00
         - -5.8583306465307106e-01
         - -2.5786012241623304e+00
         - -8.7735090620535807e+00
         - 1.6677048916158337e+00
         - -2.2933653775762750e-01
         - 1.3573663529758793e+00
         - -1.2528183771212520e+00
         - 2.7250167873923203e-02
         - -6.2257794258598125e+00
         - 2.2766924470546455e+00
         - 1.4744589966869559e-02
         - 4.1080996988946206e-01
         - 2.6817851041335876e+00
         - 1.8094800504459208e-01
         - 1.5424545231742668e+00
         - 6.8704468513513661e-01
         - -2.1143944913981580e+00
         - 4.4052806237120912e+00
         - 5.2218768965990234e+00
         - 4.1133627946585021e+00
         - 9.2968046700817053e-01
         - 8.7538367692587400e+00
         - -2.4463920145245561e+00
         - 2.1723615815856220e-01
         - -6.3221389991361354e-01
         - -2.5298614644524964e+00
         - -2.0642874385869234e+00
         - -1.7684943953079819e+00
         - -1.8732897073482691e-01
         - 4.1076252396031796e+00
         - -1.4392630439212319e+00
         - -1.8283969814554921e+00
         - -4.4290630122314045e-02
         - 1.0691817651731735e-01
         - -7.3893272274091153e+00
         - -1.2134136248172687e+00
         - -6.3490150279507118e-01
         - -2.0318329227610170e+00
         - -6.9530899103120913e-01
         - 6.6523108206632431e-01
         - 4.4246021029388531e+00
         - -9.7699368473954662e-02
         - -6.7259760336090391e-01
         - 1.4999836994898919e-01
         - 8.7819310554045660e-01
         - 1.5107038205681662e+00
         - 5.7170269942726595e+00
         - -4.3790563439505586e-01
         - 4.4141774155636837e-01
         - -1.6691208395041350e+00
         - 1.8579292753077685e+00
         - -1.9637706337869703e+00
         - -4.1177938604087476e+00
         - -7.9147952893449758e-01
         - -4.0783811929809555e-01
         - -1.7874688225247277e+00
         - -6.5030907858928988e-01
         - 2.4436542336383454e-01
         - -6.8737218600147258e+00
         - -2.0126564964130722e+00
         - 2.7986615609464236e+00
         - -9.7949742147554941e-01
         - 2.4662999718966244e-01
         - 8.0375888200224443e-01
         - -5.9397884065979478e-01
         - 1.7027304760051192e+00
         - -4.6868922873681935e+00
         - 9.9602128214180707e-01
         - 3.4337138595474719e+00
         - -2.5612763610683245e+00
         - 2.7146200075812970e+00
         - 5.6662660828426930e+00
         - -4.2652298102728736e-01
         - -6.9305749439631956e+00
         - -4.3608349511003297e+00
         - 3.2690822663923194e+00
         - 2.4933177612332935e+00
         - 5.4488392554531320e+00
         - 7.1367755304198233e-01
         - -2.1798425022507040e+00
         - 4.5849702057624349e+00
         - 1.8020649798690369e+00
         - -3.1162055987778325e-02
         - -1.5007393268309617e+00
         - -1.5839846161458473e-01
         - 1.2178792392119833e+00
         - -1.4458204491818541e-01
         - 1.2230858873468289e+00
         - -1.4809235141884725e+00
         - 5.4753293357977340e-01
         - -1.1506510799066707e+00
         - -1.4506259838100644e+00
         - 1.4658288248428937e+00
         - -1.7102882950092639e+00
         - 3.7338636696428460e+00
         - 5.7052290765578082e+00
         - 8.6946920313737164e-01
         - -2.7373197237853946e+00
         - -4.7015169953438622e+00
         - 8.6692093921510083e-01
         - 8.5160366404278809e-01
         - 3.5135221505059562e+00
         - 1.0055944773005512e+01
         - -1.2524842043560644e+00
         - -3.7832323413848468e-01
         - 4.8054570552694074e+00
         - -4.1073787010534257e+00
         - 8.5911772604085501e-01
         - -3.2496151043056050e+00
         - -1.3241927329009229e+00
         - -1.2382248524914372e+00
         - -2.0387224831706408e+00
         - 2.2831414932282154e-01
         - -8.2239368112145272e-01
         - 8.7182100896521353e-01
         - 8.6320326108051293e-01
         - -1.9633112108983701e+00
         - 1.4890212894550425e+00
         - -1.4799053983490571e+00
         - -2.9323744938350789e+00
         - 1.3417844710031459e+00
         - 4.7450982280071730e-01
         - 1.9776398606671362e+00
         - 5.3782127935891655e-02
         - 1.3407821135038803e-01
         - 1.3171584321382075e+00
         - -1.8872250978020796e-01
         - 2.8677590920175700e-01
         - 2.2907292727784618e+00
         - -8.1988249660546109e-01
         - -1.2534664208602571e+00
         - -1.4827853665522112e-02
         - -8.0390233317999626e-01
         - -9.3533844157407398e+00
         - 6.9536994305343314e-01
         - -1.7779537683030422e+00
         - 3.2875165254053695e-01
         - -3.7458286192235035e-01
         - -1.9518069921880865e-01
         - -2.9068763188853675e-01
         - 9.0704552842706898e-01
         - 1.3104335415130879e+00
         - 1.2941835034961074e-02
         - 4.1281548857683914e+00
         - -1.2872578747697617e+01
         - 4.0597887823710838e-01
         - -1.5946075559207988e+00
         - -3.6855180193958490e+00
         - 1.5890607150568861e+00
         - -2.9420704278900622e-01
         - -1.5189596459249785e-01
         - 1.3452465739701489e+00
         - 5.5932887777018276e+00
         - -4.9892678903692023e-01
         - -1.4153150331686899e+00
         - 5.9817983249927542e-01
         - 8.6696852319245743e-01
         - 8.7788211119663089e+00
         - 6.8556404139415825e+00
         - -1.1723543726197612e+00
         - -4.0839700090669515e+00
         - 1.3581403178822187e+00
         - -3.5877622677186083e+00
         - 3.4187720393836232e+00
         - 7.5142131667573664e-01
         - -4.4955394074496642e+00
         - -4.1209381305689252e+00
         - -4.4706869230515256e-03
         - 1.2747302966889313e+00
         - -4.1474593901261769e-01
         - -2.3517285531927645e+00
         - 3.3146244471635553e+00
         - -4.1448377819403461e+00
         - 2.2731065692177033e-01
         - -1.2849297620387698e-01
         - -4.0840039169822839e+00
         - 1.4265175364518328e+00
         - 7.6775144130326600e-01
         - -1.8640549055619765e+01
         - 1.0639459677887706e+00
         - -7.6498647035628448e-02
         - 2.1169330855638107e+00
         - -4.8572721843157712e-01
         - 5.4386707951609523e+00
         - 1.7939897422060938e+00
         - 8.5659909262636935e-01
         - 1.9427376293451097e+00
         - -8.1743445347658084e-01
         - -3.5290795264150341e+00
         - -8.9136082789852988e-01
         - -1.3087459887592753e-01
         - -2.0556729344214921e+00
         - -5.9182783457430299e-01
         - -2.0026802590812034e+00
         - 9.7537046769411273e-02
         - 1.2247328079022937e+01
         - 1.7606159274030705e-01
         - 1.2432197881864027e+00
         - -7.0601552464168205e-01
         - 7.5834317883957612e+00
         - -1.0745643193894205e+01
         - 1.1149062950244200e+00
         - -1.9020099079909347e-01
         - -4.7840793064553102e+00
         - 2.8967251329361705e+00
         - -2.8065867989219182e+00
         - 1.1143196268890567e+00
         - 4.3208813166940718e+00
         - 4.1545243656710511e+00
         - -5.6286617827430607e+00
         - -3.9740954380205498e+00
         - 9.5316209875728375e-01
         - 3.7281693495003571e-02
         - 3.2706785064551775e+00
         - 3.4469023816752400e+00
         - -6.6180653810142056e+00
         - -8.6398723052663122e+00
         - 1.0149038782954642e+00
         - -3.5382460618193106e+00
         - 9.6371795218380718e-01
         - -5.5273615661171094e-01
         - -5.7101753401858257e+00
         - -5.3604698206432211e+00
         - -1.0583557342362049e+00
         - 4.9706534217680898e-01
         - -2.0241842417722320e+00
         - 4.5384153284358242e-01
         - 5.5864052043325196e-01
         - -7.0364051812907613e-02
         - 8.6190547278392131e+00
         - 3.4677713531702956e+00
         - -1.4425332434651585e+00
         - 2.4823563967533158e+00
         - -1.6469200621667031e+00
         - 6.2927434390409331e-01
         - -3.8969262897644563e-01
         - -9.2547260760702160e-02
         - 1.6568973019496686e-01
         - 1.8115414397064049e+00
         - 1.2725902766774855e-01
         - 9.6082138621065893e-01
         - 1.0659333936318744e+00
         - -1.9302996138744841e+00
         - 6.0299169550304366e-01
         - -3.0280344905444281e+00
         - 1.3120388922677984e+00
         - 3.2586719821960202e+00
         - 3.9537522599646574e-02
         - -2.6595903014006002e+00
         - -9.9069065372183551e-01
         - -1.9257350378928015e+00
         - 4.6442910408211135e-02
         - -1.0970509422292830e+01
         - 2.6863334011559781e+00
         - 2.6654974276084218e+00
         - 1.8043579057804924e+00
         - -3.5713762281039458e+00
         - -1.6839233340075004e+00
         - -1.2049339393800784e+00
         - 6.4777333006669535e-01
         - 1.1706856254789977e+00
         - -2.6387741361792105e-01
         - -9.4660775033043210e-01
         - 1.0733957157930316e+00
         - 5.4471884984532726e-01
         - -3.9285491185770791e+00
         - -1.7088816774622739e+00
         - 5.0775265837077621e-01
         - 8.7248515664552506e-01
         - 1.7199974664974489e+00
         - 1.9530519630450949e+00
         - 9.5804714766728527e-02
         - -7.1866390946084380e+00
         - 3.4173719199701056e+00
         - -9.7113713418758585e-01
         - 6.1236833570074571e+00
         - -3.4596916667392263e-01
         - 1.7678328440165325e+00
         - -2.6780224726270534e+00
         - -4.0197790535433482e+00
         - 2.7796748374201057e+00
         - 2.5989681444525514e+00
         - -4.9488999493368285e-01
         - -3.2336792640106928e+00
         - 5.3936339243895617e+00
         - 4.6205282109552387e-01
         - -1.5714816690085782e+00
         - 4.8731139425212611e+00
         - -4.7185678819965506e+00
         - -1.0013147834419405e+00
         - -8.4279456591814550e-01
         - -1.0991514803017044e+00
         - -2.6905674696940305e+00
         - -4.3050690654787460e-01
         - -6.3153269658885747e-01
         - -6.6842267269893452e-01
         - -4.1299667925479966e+00
         - 2.4542876945260361e-02
         - -1.6185601440447717e+00
         - 8.1196726394655394e-01
         - 5.4482364019842162e+00
         - 2.1775251565886635e+00
         - 5.3902560642543644e+00
         - 8.4155073731892904e-02
         - 6.2048337136248675e+00
         - 1.5239325775040427e+00
         - 5.3514441795630532e+00
         - 2.8396806495930482e-01
         - 2.1236762116017480e-01
         - -1.9927673745361545e+00
         - 2.3093681911749275e+00
         - 7.9952987419732935e-01
         - -9.5579630120723902e-01
         - 3.2024271943058047e-01
         - -1.4274541023004412e+00
         - -1.3391386325096759e+00
         - 6.1588146677582785e+00
         - -2.2298696246940541e+00
         - 1.8178144864182868e+00
         - 4.8640645107752132e+00
         - 9.6563491063683693e-01
         - -6.1035660176604694e+00
         - -2.2990195185959159e+00
         - 2.1576467815272822e+00
         - 9.8091002790495996e-01
         - 1.1622409034423389e+00
         - 3.2370216131996927e+00
         - -1.2605938695836887e+00
         - -2.8356700053490052e+00
         - 4.5398992362257429e-01
         - 1.9692934937299964e+00
         - -1.9387515610049746e+00
         - -7.8337252765730447e-02
         - -5.5690251705917482e-01
         - -2.5588691759799578e+00
         - -2.3107825327297054e+00
         - 5.0944803397996763e-01
         - -5.4102747057927054e+00
         - -7.5457623726331136e-01
         - 1.5655620811799869e+00
         - -1.7026193919199568e+00
         - -9.4066364650821779e+00
         - 4.8882422494632873e+00
         - -4.3959219740975153e-01
         - 1.7164849346561382e+00
         - -1.9444541748183269e-01
         - 8.2104520684674964e-01
         - 1.0068724968335191e+01
         - -1.7993269380421897e+00
         - -9.3491845198002981e+00
         - -1.8644518947062984e+01
         - 1.9960000000000000e+00
         - -2.7673700310339178e+00
         - -1.1454228151598049e+00
         - -1.0483750215157324e+00
         - -1.8636442170022342e+01
         - -1.7194780922874970e+00
         - 1.4780775846102362e-01
         - -1.9740346482020918e+00
         - -4.0861397992236643e+00
         - -4.7349415716569574e+00
         - 6.3620552846219336e-01
         - 1.1033053109328099e+00
         - -5.2228293335337656e-02
         - -4.5463474367143526e+00
      -
         - 9.2237967617671968e-01
         - -6.3051115945974856e-01
         - -4.1712557352856567e+00
         - -5.2035822566014589e-01
         - 4.0404680053515579e-03
         - -3.9939176398650247e+00
         - 3.0217790609067228e+00
         - 1.0480122630446065e-02
         - -1.2177473774623508e+00
         - -8.6822418734751228e-01
         - 6.6369581951423884e+00
         - -1.6860622574312573e-01
         - -1.7354402159870164e-01
         - -6.3996971820928805e-01
         - 3.1364709013311481e-01
         - -2.8306838370098397e+00
         - -1.9648926559324100e+00
         - -3.3874636572397629e+00
         - -2.7826410594742312e-01
         - -1.3607207030200308e-01
         - -6.1162375812063310e+00
         - 2.5557979371540424e-01
         - -2.0336116785766074e+00
         - 9.1904089369455422e-01
         - 5.5741077544315303e+00
         - -2.6845901180501830e+00
         - 3.0681762058663326e-01
         - 4.9500352949422710e-01
         - 2.0708415686203780e+00
         - -2.4257560800829356e+00
         - -3.3233186691775879e-01
         - -2.6008454618633956e+00
         - -2.9186494491884485e+00
         - 2.5917432407274497e+00
         - -2.5939586005203203e+00
         - 7.3875116890707382e+00
         - -1.8688162177817158e-02
         - 1.8122718537894278e+00
         - -5.7171364699467886e-01
         - -1.0388403913794380e+00
         - 4.4525665270489423e+00
         - 1.9750630507916983e-01
         - 3.4128902436959492e+00
         - -5.7672145319921264e-01
         - -1.8061084474067222e+00
         - -6.4308016916753841e-01
         - 1.4635874297867174e-01
         - 3.2225557285482709e-01
         - -3.4610178771542186e+00
         - -2.9606500262262597e-01
         - 1.1239274252001841e+00
         - -1.1585879945624868e+00
         - -3.5394061518999775e+00
         - 2.2901192430108850e+00
         - 2.4792972774057842e-01
         - 5.6189415957718936e+00
         - 4.7113042792070270e-01
         - 9.3567602220144259e+00
         - 3.9581154535497474e+00
         - 1.9840319354794824e+00
         - 6.2661457789734509e-01
         - 1.2618888239283943e+00
         - -3.8290014114236537e-01
         - -1.2060084866068779e+00
         - 2.0089859792012326e+00
         - 1.5503237606730249e+00
         - -2.2947194513499243e+00
         - 9.4364804289288582e+00
         - 4.8402615388587797e+00
         - -3.8734981698099125e+00
         - 6.9416227528182151e-01
         - 2.7551364652546892e+00
         - -9.3126969969274886e-01
         - 9.9341044686546986e-01
         - -1.4214837828363686e-01
         - -1.0034813947622558e+00
         - 9.6319794665489133e-01
         - -3.9153187872241091e-01
         - 1.0892261521747284e+00
         - 1.1437554199458803e-01
         - -4.0929967721986493e+00
         - -8.5078401985058072e-01
         - 2.0780013673227271e-01
         - -9.4948156193715194e-01
         - 2.0264541203573502e-01
         - 2.2076520744904524e+00
         - 1.9874315795610660e+00
         - 2.7552162638859190e-01
         - 2.3240420817573324e+00
         - -1.4042851294608008e+00
         - 3.4503447356795709e+00
         - -8.5906068886652653e-01
         - 2.9622252923681547e+00
         - -4.3643177206418216e+00
         - 3.5574272193499588e+00
         - -1.7050610855328512e+00
         - -1.9506038919936866e+00
         - 2.7363116801534950e+00
         - -6.2196732370894887e+00
         - 3.5223326328565987e+00
         - 1.9312361012561265e+00
         - 1.0081741696376996e+00
         - 3.5841814588101175e+00
         - -3.3643799900852307e+00
         - 2.2191496744546080e-01
         - 1.3788190488120136e+00
         - -6.3139675280252272e-01
         - 4.0651157176011150e+00
         - -3.8846645442144969e+00
         - -1.9400496340536657e+00
         - 1.1668437932131046e-01
         - -1.6985215363213919e+00
         - 7.2774572147867211e-01
         - -1.3778740747215947e+00
         - -1.1631912465574001e+00
         - -5.0615014730283803e-01
         - 3.1397938533232272e-01
         - -1.6969660114748930e+00
         - -1.6782454582570723e+00
         - 5.1759323561575132e-01
         - -1.0584574436434036e+00
         - -7.3031692969716266e-01
         - 4.5423907875205707e+00
         - -3.3926976258946864e+00
         - -2.6963130794284851e-01
         - 1.3757295251536481e+00
         - -1.6792236312931350e+00
         - -5.5710721732143167e+00
         - 6.7315806975406822e+00
         - 1.3490952285141256e+00
         - 2.8273668952097886e+00
         - 9.0935785047981921e-01
         - -1.3670577970821609e+00
         - -9.4735402069504868e+00
         - -6.8060439322727015e+00
         - 6.9235043115307715e-01
         - 2.1504635318320018e+00
         - -6.7547204035209407e-01
         - 8.0446659360513060e+00
         - -6.9584847279066042e-01
         - 1.0891266653813901e+01
         - -1.0604103052987814e+00
         - -2.7458167213671811e+00
         - -1.3834814794230286e+00
         - 1.0123854488985058e+00
         - 1.4116355116836221e+00
         - -3.3065084528131541e+00
         - 2.1320474229771944e-02
         - -8.9676209096978565e-01
         - 7.7738512847275567e+00
         - 4.9953126740869669e+00
         - -2.7112753364775471e-01
         - 9.7665437469294503e-01
         - -3.4948199071227093e-01
         - 2.2248255397979415e+00
         - -3.9270623208345117e+00
         - -3.0222151801809529e+00
         - -5.2184725207249788e-03
         - 4.8029793702585200e-01
         - -7.0066773504936164e-01
         - -7.3966685360561648e+00
         - -4.9073851247973627e-01
         - -1.7176663243592727e+00
         - -4.5328209191578637e+00
         - 1.6855489123576857e+00
         - -1.0728480350174914e+01
         - 4.2787915775596974e-01
         - 7.0279396974844155e-01
         - 8.1741978017081807e-01
         - -4.0190419921658682e+00
         - -1.6609850534893127e+00
         - 7.1872643837241124e-01
         - 9.4269273581409541e-01
         - -1.0697610310829171e+00
         - 3.7506785952978638e-01
         - -1.8686379391721310e+01
         - 3.3777311435160190e-02
         - -1.5098012562648089e+00
         - -2.6351164006384580e+00
         - 2.6966854909514506e+00
         - 4.8094277386243967e+00
         - 2.4268058954376737e+00
         - 9.5957901859157946e-01
         - 6.1865892134621714e-01
         - -1.3893735415997310e+00
         - -1.0016242884461652e+00
         - -3.5671911518157469e+00
         - -3.3309377356446435e-01
         - 2.5992728167257233e+01
         - 1.3218135336605021e+01
         - 1.3199053688865115e+01
         - -1.2811906121831995e+00
         - -6.9835604486109892e-01
         - -2.8176457391868452e+00
         - -5.6779570004635094e+00
         - -4.7228450768446715e+00
         - -8.3279963086278421e+00
         - 2.0235691388694139e+00
         - 3.5906565173326741e+00
         - 5.3325750042355740e+00
         - 7.1335976384777577e-01
         - -2.3378809762299362e+00
         - 7.9310959591291674e-01
         - -9.1390780887010337e-01
         - 1.7811790786680604e+00
         - -1.8051065825601409e+00
         - 6.8067813700281188e-01
         - -2.7920542400026127e+00
         - -1.5132297777461285e+00
         - 3.9006014738452216e-01
         - 4.6764101358889121e-01
         - 3.3145078778693957e+00
         - 1.3598157871327472e+00
         - 1.2553250122126611e+00
         - -1.4235166349322290e+00
         - -1.8998440420989828e+00
         - 1.0640798095271775e+01
         - 4.1830052797958359e+00
         - 1.9284561947378196e+00
         - 4.5476685620248141e+00
         - 6.7658376103245743e-01
         - -9.0819592138602379e-01
         - -5.5247360381279638e+00
         - -8.1907413721069766e-01
         - -7.4651625601160214e+00
         - 4.5546910281824537e+00
         - -2.2351652657008589e+00
         - -3.8878467855573584e-01
         - -6.1732654386849326e+00
         - 6.4234324208811044e-01
         - 2.2361944201266857e+00
         - 9.8313045089601958e-01
         - -1.0865318842534415e+00
         - 3.7927485007760970e+00
         - 1.7370763487408740e+00
         - -5.3252762493290202e+00
         - -8.4454449726076175e-01
         - -2.6158425439401203e+00
         - -2.5269236415893022e+00
         - -2.4454649166163409e+00
         - 1.9204038925407916e+00
         - -7.4736561274902513e+00
         - 2.2527792608867689e+00
         - 5.6664314085218859e+00
         - -9.1082100630288126e-02
         - -9.4479870684841838e-01
         - 1.6229943858483617e-01
         - 9.6858216046542811e-01
         - 1.7198052638194206e+00
         - -1.8754793042172657e+00
         - 8.3385079058939233e+00
         - 3.2016207581597533e+00
         - 1.1479080838052240e+00
         - -9.0497135230195624e-01
         - -3.1338482076151553e-01
         - -2.9084965227735560e+00
         - -3.3827087467844423e+00
         - 2.6898750884108518e+00
         - -8.9192227982708638e-01
         - -1.5024279740571772e-01
         - 1.3705362110790076e+00
         - 1.5126554077230718e+00
         - -2.6135456592389499e+00
         - 1.3504454402386672e+00
         - 1.7465029138773125e+00
         - -1.0836419921085072e+00
         - 1.9441916816640865e+00
         - -8.3750200950374765e-01
         - -3.2710957232222992e-01
         - -6.7624111194952630e-01
         - 5.5851518940906675e-01
         - 3.6859897179197953e-01
         - 4.0307364558995917e-01
         - 9.1338076767007170e-02
         - -1.9428826050231271e-01
         - -5.1460933209238069e-01
         - -6.3449973433091653e+00
         - 8.6575419517932584e-01
         - 1.2661690760715776e+00
         - 4.6865902051551149e+00
         - 3.6066314319935483e-02
         - 3.7005892847221182e+00
         - 4.7850324052833315e+00
         - 1.3031469578743651e+00
         - -7.7046049773250996e-03
         - 4.0051681398291272e+00
         - 3.7321190660171233e-01
         - -8.8432966344068525e-02
         - 1.2098952310151914e+00
         - 1.8719521325329584e+00
         - -3.3889546930643140e+00
         - 9.1826021105533384e-01
         - 1.7314637805767386e-01
         - -4.1971610329279487e+00
         - 6.7793348916316964e-01
         - -3.8472825652232340e-02
         - 1.9178270524557788e+00
         - -1.3417143386577384e+00
         - 3.4338021776076455e-01
         - -8.8041010829709387e-01
         - 2.8068977391357404e+00
         - 1.2959962251775108e+00
         - 1.2673450793222352e+00
         - 1.0028379081913772e+00
         - -2.5921986141435771e+00
         - -4.2585098221254967e+00
         - -3.1265827980407122e+00
         - -2.3844517312860164e-02
         - -4.1386778020890267e+00
         - 8.6654091690204105e+00
         - 6.4030657250084899e-01
         - 2.1378112079525859e+00
         - 5.6705435796819135e+00
         - -3.1222933358747511e+00
         - 8.4214741416829977e+00
         - -1.7531956685199748e+00
         - -1.4052546655465887e+00
         - -3.6261438983032634e-01
         - 3.6970319894556010e+00
         - 2.1658335013132468e-01
         - -8.6258488310679766e+00
         - 1.3584227579474832e+00
         - -2.5266784503921165e+00
         - 4.3475727334074155e-01
         - 5.6411213527205617e-01
         - -1.1669946382631755e+00
         - 1.1931282774798364e+00
         - -1.1456709354263964e-01
         - 3.1447756807913008e+00
         - 4.3890421225023701e-01
         - -3.0951849499679412e-01
         - 1.5060808747352357e+00
         - 1.2556636564995654e+00
         - -1.7179480084317800e+00
         - -6.9653287331841632e-02
         - -8.5646190624165586e-01
         - -2.0190111236056071e-01
         - 5.7943445289623696e-01
         - 2.9078513523370804e+00
         - -3.1608701773350462e-01
         - 1.8051396009262488e+00
         - 8.4281833396067523e+00
         - -3.8195571541862270e+00
         - -1.7555993345953786e+00
         - 4.9170543777361910e+00
         - 1.5505921095272091e+00
         - -4.5395824168294165e+00
         - 1.7015915979117961e+00
         - 2.7171804573731535e+00
         - 4.3784053910342147e-01
         - 2.1509326007211609e+00
         - -2.7677790294771237e-01
         - -1.1793784301202626e+00
         - -6.4587237005748710e-01
         - 2.2494349795334996e+00
         - -8.8678252603018914e-01
         - 3.9952249101851454e+00
         - 6.1484545034681115e-01
         - 2.3448285623535581e+00
         - -1.9440343931641726e-01
         - 2.2207056657477015e-01
         - 1.6626788457970643e+00
         - -2.7830215831298291e+00
         - -2.7200239282593991e-02
         - -6.6694402035738198e-01
         - 2.5529419916554947e+00
         - 3.2325059012099406e+00
         - 2.9039748413504962e-01
         - 3.3839797319494807e+00
         - -1.6488151180469153e+00
         - 1.4251420728626407e+00
         - -4.1953181531571531e+00
         - 5.0038791762185786e-01
         - -2.3197995494043631e+00
         - -1.7637941966512938e+00
         - -2.2328469611009152e+00
         - -1.8861027384067189e-01
         - 4.7588564336129089e+00
         - -1.5599346155939631e+00
         - 2.9017703291992927e+00
         - 5.5967277794339392e+00
         - 4.1447392353482551e+00
         - -1.9186280553332771e+00
         - -6.1380671148874750e+00
         - 6.4542825057216247e-01
         - 7.9041491862606073e-01
         - 4.2443946288517829e+00
         - 6.0856503847075363e+00
         - -4.2459097213141850e-01
         - 1.1898549886123484e+00
         - -1.7882692402364695e+00
         - -5.4768754699723909e-01
         - 1.2453571086602029e+00
         - 4.0752400835502804e+00
         - 4.0242728611550560e-01
         - 3.2946597002068567e+00
         - -4.0377427028450530e-01
         - -2.7987632451525085e-01
         - -1.0556744628452914e+00
         - -2.4704284338626525e+00
         - 1.2382654785453551e+00
         - 1.8957444496539572e-01
         - 1.7710331014377116e+00
         - 2.8989004070443403e+00
         - 4.5546872178706224e+00
         - 1.2214159733555285e+00
         - 4.1042987894814353e-01
         - 2.7942041888256313e+00
         - -4.5134328876369771e+00
         - 3.9044859991701588e+00
         - -3.1762896333363058e+00
         - -6.7505525056314459e+00
         - 8.8391498773080934e-01
         - 2.1981398778371477e+00
         - 5.8302487794299018e-01
         - -1.7385773523267560e+00
         - -4.0515482746467626e+00
         - 1.0131271640558237e+00
         - -1.1665657423127227e+00
         - -6.4346450864842968e+00
         - -6.2390500284138883e-01
         - -8.3141672495261287e-01
         - 8.8617033326062217e-02
         - 7.8381279555476369e-01
         - -1.8550106860472376e-01
         - 2.1877713780672878e-01
         - 3.4747637716640756e-01
         - -4.0717791943725223e-01
         - 4.9053083538776043e-01
         - -3.9944034539867185e-01
         - 1.1639635697841955e+00
         - -1.1033114781841016e+00
         - 6.3984208071223639e-02
         - 9.4099876788119508e-01
         - -9.5054192527156955e-01
         - 1.2314190142517556e+00
         - 9.4995634856285205e-01
         - -4.2867305881984930e-01
         - 3.6205040877243055e-01
         - 8.3944317345153352e-01
         - 1.2239732394287974e+00
         - 1.0688184213046736e+00
         - 6.5746287910214765e-02
         - -1.7747183105590247e+00
         - 8.9909089595550951e-01
         - -5.5298825867607271e-01
         - 2.5865465739249566e-01
         - -2.5808573934962826e+00
         - -3.4291731108574832e+00
         - -5.4092979686389653e-01
         - 5.3931248708236146e-01
         - -1.0592840780216208e+00
         - 4.2729020404446523e+00
         - -5.1883720576791936e-01
         - 8.5977482247778980e-01
         - 1.2759949282679304e+00
         - 3.9676922258309077e-01
         - -9.3429269547988059e-01
         - 1.3123399654218080e+00
         - -3.6967683465401642e+00
         - 1.5538037752738689e+00
         - 6.5324341165533575e+00
         - 3.1111588496413871e+00
         - 1.2160810515932505e+01
         - -1.0126236660717337e+01
         - -1.0689620214826669e+00
         - -1.0980329324708371e+00
         - 1.8030335281085468e+00
         - 1.2617479214086478e+00
         - 2.7877224349296386e+00
         - 1.1165681752288288e+00
         - -6.0826796561961383e-01
         - 4.7833197008702139e-01
         - 1.4762861491017381e+01
         - 3.6920161165061960e-01
         - 7.4158368577111844e+00
         - 1.9276530717551312e+00
         - -9.3406607253710960e-01
         - -1.8175727684557292e+00
         - 1.3778170916467669e+00
         - 2.1640318643982619e+00
         - -3.4257183338796060e-01
         - -3.5384537404975824e+00
         - -2.9339889814654003e+00
         - -1.3631124110217048e+00
         - -1.8498864467991867e+00
         - 4.8916548136815785e-01
         - -7.1242822265332006e-01
         - -5.2373045595575309e+00
         - -8.3712994286501663e-01
         - 2.2351957383190522e+00
         - 1.1951592900880483e+00
         - -3.3608048705441949e+00
         - 1.3256252578690605e+01
         - -1.3713348484673813e+00
         - -1.6335059920849400e+00
         - 7.3811953786197932e+00
         - 2.4239453809423126e+00
         - 1.1791968623885904e+00
         - -1.7768458733796391e+00
         - 4.4426041090399622e+00
         - -6.7625336118882801e-02
         - 6.4287166655001060e-01
         - 2.1943384583369920e+00
         - 7.9872881655029149e-01
         - 6.0285192179660161e+00
         - 2.4813134150841192e+00
         - 3.9019394199060846e+00
         - 1.0040756792744343e+00
         - 1.4484109987478036e-01
         - -2.3091227543283317e+00
         - -4.4667919042626849e+00
         - -1.7350296945640989e-01
         - 2.1547687441947411e-01
         - -6.1980638261333043e+00
         - 1.7694976562718634e+00
         - 4.7781167247379628e+00
         - -2.4312924057296126e+00
         - -4.8953616778867548e-01
         - 2.3937185321516896e-01
         - -1.4505467845349129e+00
         - 1.7502757520044598e+00
         - -6.9313333077862294e-01
         - -1.4007961833338882e+00
         - 1.9350231104170097e+00
         - 1.7499624967695140e+00
         - 9.8262803556534895e-01
         - -4.9313644851022058e+00
         - -2.8930683453732993e+00
         - -6.4687446620254718e-02
         - 3.7947839621880841e-01
         - -3.9006044756450735e+00
         - -1.3307997997397845e+00
         - -2.8873151407703430e+00
         - -4.1986585128513765e-01
         - 6.6170603727272270e-01
         - 7.6081881140132490e-01
         - -5.3010039211746030e-01
         - 1.5929805056269677e-01
         - -2.7711974097605507e-02
         - 1.8018931870812189e+00
         - 3.3764249327294769e+00
         - 1.5718345013487154e+00
         - 2.9068314397030187e-01
         - -1.3149188923749076e+00
         - -1.6215521747805206e-01
         - -2.2345330347857928e+00
         - 9.2305628545842111e-01
         - 1.0393955601621345e+00
         - 1.9849745455646619e+00
         - -9.6943950548992397e-01
         - -9.2064772491365646e-02
         - 1.8954557588713645e+00
         - -4.0506064245618312e-01
         - -7.3597196171722168e-01
         - 1.7635630581984061e+00
         - 3.0041173209282013e-02
         - -1.5376424942122846e-01
         - -6.2376149052632546e-01
         - -2.1304812166469023e-01
         - 5.6135154192347585e+00
         - -6.1881703539029886e-01
         - 1.0290381912447542e+00
         - 1.0928612720191008e+01
         - -4.4889613113353377e+00
         - -2.7113400525577642e+00
         - -9.3295089250024033e-01
         - -2.2270779152053342e+00
         - -5.0080142690327110e+00
         - -9.1594815826984577e-01
         - -1.1134852863314986e+00
         - -1.7258976883601238e+00
         - -1.4087474155571920e+00
         - 5.5462530600321946e-01
         - -1.0166223514515176e+00
         - 1.0865756368689723e+00
         - 2.0959308545259181e+00
         - 1.5227821830600858e+00
         - 1.1347255171727175e+00
         - 1.0223830481800054e+00
         - -1.6858038331024556e+00
         - -1.2463254785543310e+00
         - -3.1935667687457192e+00
         - 3.1094686237531102e+00
         - 1.4000041772133265e-01
         - -5.6770491778536258e-01
         - -2.9435648601608144e-01
         - -9.6836302005887442e-01
         - 9.4193188315738763e-01
         - 1.3134199277137868e+00
         - -2.4779301212654214e+00
         - 1.6600532209955901e-01
         - 1.0993974818019323e+00
         - 1.5731511137433847e+00
         - -4.6903557137460385e+00
         - -4.3848900425301535e-01
         - -6.6973403764466939e+00
         - 3.4122576914118969e+00
         - 2.9269253073034105e+00
         - 3.4908492086752423e+00
         - 2.3196104159947553e-01
         - -6.4305714200182269e+00
         - -3.8835774053812711e+00
         - -7.5846279637108593e-01
         - -3.4679671409146176e+00
         - -8.3545475112147660e-01
         - 4.9432162236195500e+00
         - 3.5580587732766444e+00
         - -1.0053308456306920e+00
         - -4.4910334994900243e+00
         - 5.1093424710158275e-01
         - 4.4125254636012623e-01
         - 1.8006925931573277e+00
         - -3.1011439225592783e+00
         - 2.4864848408018290e+00
         - -6.2283422612087076e+00
         - -3.2483700458212832e+00
         - -6.0658317017856844e-01
         - -8.7978219849272570e+00
         - -2.8633256075487585e+00
         - -1.4354266733697434e+00
         - -1.9388189173671959e+00
         - -3.3869816811859477e-01
         - 3.9447601746056871e-01
         - -7.4570134419813563e+00
         - -1.4839357609513748e+00
         - 2.8621938465091432e+00
         - -2.8168329601366215e-01
         - 1.8935528726270818e+00
         - 9.2876816574106709e+00
         - -2.7273194246242083e-02
         - -1.5717152483816568e+00
         - 3.9251128889678082e+00
         - -9.4221148773097374e-01
         - 4.2596802300890829e-02
         - 6.5600210906653811e-01
         - 2.2895851744861773e+00
         - -7.7918546027488922e-01
         - -3.6309098692805813e-01
         - -1.7208171645427850e+00
         - 6.3996039317283770e-01
         - 1.7763305086568160e+00
         - 8.5144693316007339e-02
         - -6.9881016652754790e-01
         - 1.1840601026484836e+00
         - -7.5700823949466889e-01
         - -5.8158672427992886e-01
         - -2.1748194746996834e+00
         - -2.0684527884818920e+00
         - 7.0189429460998092e+00
         - -7.4607615980698974e+00
         - 2.9701310605574709e+00
         - 1.3563435477810524e+00
         - 2.5338630481571394e+00
         - -1.9830937622323772e+00
         - 1.7024430182220978e+00
         - 1.1772306682899463e+00
         - -8.0919269593224321e+00
         - -3.9716972904457148e-01
         - -2.2759675408687015e+00
         - -1.2270106726713295e+00
         - -3.7960687835013833e+00
         - 2.0319950822706390e+00
         - 8.1356176941968297e+00
         - -9.9006098898532269e-01
         - -1.6140632319988097e+00
         - -8.7769102862124515e-01
         - -7.7538510776400407e-02
         - -2.0022544901539301e+00
         - 2.5111814107108836e+00
         - 4.0026556440036796e+00
         - 3.3776109718070750e+00
         - -2.2827497606141898e+00
         - 2.8193106560430055e+00
         - 1.3646263322348418e+00
         - -4.9063959800122492e-01
         - 9.6145014187605637e-01
         - 4.0647492257690372e+00
         - 1.3475937686279378e+00
         - -1.4110097711996436e-01
         - 9.6724727317367065e-01
         - 3.4143974919419868e+00
         - 1.0063153697977423e+00
         - -2.1765324731130464e+00
         - 3.1549679117591700e-01
         - 6.9423492568917033e-01
         - -3.4834204274320215e+00
         - 1.6844322756943548e+00
         - -8.2609279169484795e-01
         - 8.3431092273071855e-02
         - -4.7583181452746146e+00
         - -9.5136645958813459e-01
         - 2.3400933612466632e+00
         - 7.0956449396739085e-01
         - 3.5643323259077486e-01
         - 3.0004711794759820e-01
         - -1.6225997507210568e+00
         - 1.2700566654256893e+00
         - -3.7971131399703317e-01
         - -3.3196967255037779e-01
         - -4.5013419787389957e+00
         - 4.5565789710077844e+00
         - 4.5435916064282029e+00
         - 2.7942237655030722e+00
         - -1.5680406748273035e+00
         - -8.6626358574956641e-01
         - 1.0012875415278355e+00
         - -2.2820517598328629e+00
         - 4.4517243076678448e-01
         - 2.6553920444969603e-01
         - -4.8966023520434749e+00
         - -1.3814975143749866e-01
         - -2.4969260800137119e+00
         - 4.8287344661006659e-01
         - 1.9319271995890190e+00
         - 2.4363911270406464e+00
         - 3.6979676527506240e+00
         - 5.0744668493923129e-01
         - -4.1371519764584003e-02
         - -1.6453930364972753e+00
         - 6.2599653334533949e+00
         - 1.7636629179638161e+00
         - -6.0397245451647519e-01
         - -6.0993362889801506e-02
         - -1.8530911698502279e+00
         - 4.1406278529839629e+00
         - -1.7350149645047401e+00
         - 1.7109069506236794e+00
         - -2.5645667182304512e+00
         - 1.7491352605147822e-01
         - 6.4644203299828484e-01
         - -2.8902843322360794e+00
         - -9.7330365962906162e-01
         - 2.4082578143624800e-02
         - 4.8367361357393506e+00
         - 9.5683930703834708e-01
         - 4.0733799948938616e+00
         - 9.3762774619207856e-01
         - 2.1575144907640440e+00
         - -5.4387535411272059e-01
         - 1.6591343475893985e+00
         - 6.1410902589442073e-01
         - -2.6551964381321662e+00
         - -2.5703546986563719e+00
         - 4.4007718997001538e-02
         - -1.4905835612059757e+00
         - -7.1698104104351479e-01
         - 2.7416932982307287e+00
         - 7.9949506489025490e-01
         - 7.7205993927147076e-01
         - -1.0621526654474502e+00
         - -7.3668208582884376e-01
         - -6.2530832508132683e-01
         - 2.0371690899935624e+00
         - 1.4320042845302261e+00
         - 3.6161020640143104e+00
         - -5.3465813375561499e-01
         - 5.9657731181634283e-02
         - -2.7639207569803976e+00
         - -5.3209511134587029e+00
         - 8.4776409618157522e-01
         - 1.9510101634583499e+00
         - -2.4960978480049896e+00
         - -2.3361098651234563e-01
         - 1.2129566662254303e+01
         - 7.0405630292674282e-01
         - -3.5466942586968857e+00
         - -1.0018165664016552e+01
         - 1.8816577986074023e+00
         - 4.0058754197679667e+00
         - 8.7596660478071513e+00
         - 4.4958286313905340e+00
         - 3.3161192389963996e+00
         - -1.6451181825265504e-02
         - -1.4740449173401339e+01
         - -2.1992726759288788e+00
         - 1.4513832217254081e+00
         - 3.4984425264496459e+00
         - 6.7726951580645025e+00
         - -3.0831194225787772e-01
         - -4.1840891374887930e+00
         - 1.0629726333100633e+01
         - -1.6510799106095981e+00
         - 1.7721325352805457e+00
         - 1.4307945127919903e+00
         - -2.7986661110770381e+00
         - 1.0057667929751202e+00
         - -8.4098939742816969e-01
         - -1.9214603094474725e+00
         - 2.1712346938241822e+00
         - -6.9615438918652656e-02
         - -6.2313350837131221e-01
         - -8.9077669810736859e-01
         - 4.6753777650280004e-01
         - 2.4817165117173676e+00
         - -2.8770784724283862e+00
         - -2.6962637226708885e+00
         - 6.8906394329317167e-02
         - 1.4574442128473372e-01
         - -3.3134180649451217e+00
         - 1.5952965283424780e+00
         - -1.9798898099846984e+00
         - -1.2350483133039794e+00
         - -7.0480074618278277e+00
         - -1.8289077808524306e+00
         - -2.7085127700739320e+00
         - -7.3079398466832546e-01
         - 2.0317294077244594e+00
         - -1.2544694149240683e+00
         - -2.1849665646357654e+00
         - -8.1761744419526572e-01
         - 3.7367774098109041e-01
         - 1.0259096219818793e+00
         - 2.1954653229223817e+00
         - -3.5906103683736812e+00
         - -3.5749260058749743e-01
         - -1.0777083966666583e+00
         - 5.6141452383644830e-01
         - -3.8665392544624444e-01
         - 8.6559400675650195e+00
         - -6.8306585769846375e+00
         - -9.1140802608083105e-01
         - 8.1215206118627647e-02
         - -6.6131329547890338e-01
         - 4.2309227341823155e+00
         - -1.9698426309866590e+00
         - -1.0160841718237856e+00
         - -1.4111028212366621e+00
         - 1.7309101087395375e+00
         - -1.8522380787524229e+00
         - 1.5739944277335254e+00
         - 1.4657873901432268e+00
         - -4.8454796891082075e-01
         - -1.4922282615600220e+00
         - -3.5813259813323186e+00
         - -7.9716546560763424e-01
         - -7.6409620878692996e-01
         - 6.1189910083841137e-01
         - -1.4366620256693630e+00
         - -1.6198472740524159e-01
         - -9.6059972940054805e-01
         - 1.6877569387444566e+00
         - -1.9542140343518519e+00
         - -5.6319537898106353e-01
         - -8.4977231486718863e-01
         - -6.8454712250841998e-01
         - 4.9433940247052028e+00
         - 7.8136965723341056e-05
         - -3.2827440216086634e-01
         - 6.6450636647733479e+00
         - 3.3224820962063411e+00
         - -1.1729564554180065e+00
         - -1.1082952789285117e+00
         - 1.3034227888902650e+00
         - -5.5947566771497907e+00
         - -1.3290072098882948e+00
         - 2.3928112571436868e+00
         - 1.6908005165578586e+00
         - -3.3012751072214574e-01
         - -8.2012892292090402e+00
         - 6.3346752410261475e-01
         - -3.8138976679536696e-01
         - -1.4848483531670875e+00
         - -7.6697083918481579e-01
         - 3.6453141690547128e+00
         - -3.6383748678522143e-01
         - 1.1281315429659631e+00
         - 6.7403433078960490e-02
         - -2.0509323736576333e+00
         - -2.0183312745845399e+00
         - -3.6948123488351209e-01
         - -5.4036662640081250e+00
         - -4.1450299831964044e+00
         - 3.1644591238516320e+00
         - -1.4751559973652226e+01
         - 2.7638445878953766e+00
         - 2.6807357077768055e+00
         - 2.2588696607411611e+00
         - -2.9730745865110833e+00
         - -2.1358323772777243e-02
         - 1.4794257053932034e+00
         - 3.9789747205482684e-01
         - 1.5067692394169367e+00
         - -1.2016252583880376e+00
         - -1.7439371241583828e+00
         - -1.6245664035881229e+00
         - -8.7484654051634592e-01
         - -9.6877357554426613e-01
         - -2.3854791971499789e-01
         - 3.4233326655477542e-01
         - 2.8241922268469644e-01
         - -3.2141160544904688e+00
         - -9.9436766335702309e-02
         - 3.3702449599225059e+00
         - -1.4588211621633734e-01
         - 2.2147357119694520e+00
         - -2.7467974370971304e-01
         - -1.0282749760141499e+00
         - 1.4102006999531738e+00
         - 7.5006893786621376e-01
         - -9.7318409002308759e-02
         - -3.3486995552980119e+00
         - -5.8013913916797100e-01
         - 9.3883933079093429e-01
         - -7.0529297668639295e+00
         - 4.2528102290157106e+00
         - -1.3336617299278428e+00
         - -1.8461062079937135e-01
         - -2.2401371995458468e+00
         - 1.5630344238282454e+00
         - 1.0304398037271678e+00
         - 1.9643241264171535e-01
         - 3.4126654896848834e+00
         - -8.4633890027278813e-01
         - 3.3635757211946888e+00
         - 1.7291367752946361e+00
         - -2.2587896870503421e+00
         - -2.0597649829310498e+00
         - 1.3763581206109192e+00
         - -1.6040896738788057e+00
         - 4.6071566456325863e-01
         - -3.2178101153745837e+00
         - 8.3581781009101824e-02
         - -7.4342200520902157e-01
         - 3.9916531180733539e-01
         - -1.6969671022510420e+00
         - -4.9485778582989806e+00
         - -1.9971185715180007e+00
         - -7.7996801794391031e+00
         - 4.8066655647432128e+00
         - -2.2536428007578664e+00
         - -1.4306609993970820e-02
         - -7.2022144207255723e-02
         - 2.6108204397987773e+00
         - 1.2132314990567459e+00
         - -1.9134432448865817e+00
         - 2.3214693669877020e+00
         - -2.6008155841855768e+01
         - -2.2807947468705194e+00
         - -2.0283570965539597e+00
         - -1.4070768418595869e+00
         - 1.4862126529531832e+00
         - -1.1165189459958582e+00
         - -1.9142580039783195e+00
         - -6.4483787147836569e-01
         - -1.7129287675082092e+00
         - 2.6615764720688695e-01
         - 2.4243185899657860e+00
         - 2.5026623822517508e-01
         - -7.1678899594317014e-01
         - -3.6984648250131791e-01
         - -2.2148394220008327e-01
         - 6.6570385494162132e-01
         - -5.9916846289263326e-01
         - -1.4713780497216250e+01
         - -2.2530699098714924e+00
         - 5.1477751156998985e-01
         - -4.2896045262548732e+00
         - -3.4700936646256153e-01
         - 3.4182893620826755e+00
         - -2.9586281041959475e+00
         - -7.7855556190665742e-01
         - 1.7801638785903529e-01
         - -9.0928978156065099e-01
         - 5.1892870996508800e-01
         - 3.1240091408802613e+00
         - -6.1630609831791516e-01
         - 1.1347195755245001e-01
         - -1.9347599814420353e+00
         - -4.3563218817964516e-02
         - 1.8612917023243858e+00
         - 6.4810809452218721e-01
         - 7.0063340109241035e-01
         - -3.0024532500946961e+00
         - -1.7494118824786276e+00
         - -9.1880836364046381e-01
         - 5.3438668143470358e-01
         - 9.4149832392904020e+00
         - 9.9607750444263701e+00
         - -1.9898139324050010e+00
         - 1.3794709845120234e-01
         - -8.7419032116439581e+00
         - -2.7132018729653296e+00
         - -8.8959638874204827e-01
         - -4.2764009154955964e+00
         - 6.3815882380249658e+00
         - -2.0154798651401582e+00
         - 5.6708900976406476e+00
         - 1.6413385844024715e+00
         - 2.3753717623861861e+00
         - 4.7992540182747845e-01
         - 3.3750696616690328e+00
         - 2.3277139485774114e+00
         - -1.9381823245855712e-01
         - -2.7786858717912555e-01
         - 1.3233017668807259e+00
         - -3.9336922747976111e+00
         - -1.9036542690129044e-01
         - -3.1237855424961021e+00
         - 1.3649941299284383e+00
         - -9.5984667092275244e-01
         - -3.3366603153154645e-01
         - -4.7400543425254482e-01
         - -1.7709176482480813e+00
         - 1.5234849453659138e+00
         - 4.5197095075549998e-01
         - 4.1004116969419080e-02
         - 5.1085318220431097e-01
         - -5.5593443273006411e+00
         - 1.4473352094080039e+00
         - 1.1740447325744194e-01
         - -6.7576004676919492e+00
         - 2.1608771800163660e+00
         - 9.9618441862960871e-03
         - 3.9806692029290627e+00
         - -2.4536634211474926e+00
         - -5.2949833796887125e-01
         - 8.9159338438051416e-01
         - 2.1101669635710043e+00
         - 3.6449347935546467e-02
         - -6.1170747043423235e-01
         - 6.4996287530148000e-01
         - 3.5410537441358686e-01
         - -2.6235690289951181e+00
         - 2.9870990837315903e+00
         - -1.1936014045459141e+01
         - -4.0068475659695872e+00
         - 2.2164249369690681e+00
         - 1.7539699195324590e+00
         - -9.4684657207874767e-01
         - -4.9860899917915091e-02
         - -6.0529496226011537e-01
         - 2.4822409521305540e+00
         - -6.1925823035953353e-01
         - 4.2360043466103969e-01
         - 5.2698483252130597e+00
         - -5.7941636438064659e-01
         - -2.5582423837826975e+00
         - -5.9890097222452165e-01
         - -5.3177053504698284e+00
         - 8.8695528597087436e-01
         - 2.7040756778890946e+00
         - -4.1388985972128456e-01
         - 4.7729116568863689e-01
         - 1.0980494910626071e+01
         - 3.0287441488864542e-01
         - -1.2923255316639075e+01
         - 9.2124431746200844e-02
         - 2.5938470031723071e+00
         - -5.9187959926571021e-01
         - 8.8007901561155943e+00
         - 1.2461134288203821e+00
         - 3.3781756439241133e+00
         - 5.1650867284628008e+00
         - -3.0010954305925948e+00
         - -2.2746868266157438e+00
         - 3.9791197737386896e-01
         - 2.2078599324038124e+00
         - 1.1393004915472578e+00
         - -2.9012623685460692e-01
         - -4.2074182618647669e+00
         - 5.5884999808075664e+00
         - -4.5556984468891781e-01
         - 2.4744967896615364e+00
         - 8.4279915931230509e-01
         - 6.9098559184302211e-01
         - 2.0283933094030941e+00
         - -1.2172788910138983e-01
         - 1.0716967878988248e+01
         - 1.4442649169234452e+00
         - 3.6428480270787520e+00
         - -9.8672463554481240e+00
         - 1.0592449994405575e+00
         - 6.7404088443158638e+00
         - -2.6137312987656429e+00
         - 1.4772956595302334e+01
         - 8.7006577608066458e+00
         - -3.9250165475869858e-01
         - -1.7742553988768667e-01
         - 5.9019930973100376e-01
         - -1.0835774618126143e-01
         - -9.0870473555848402e-02
         - -2.5969398293077347e+01
         - -3.5341110884632831e-01
         - 5.6876154131157968e+00
         - 6.8014353933922889e-01
         - 3.5491142880850166e+00
         - -3.3979538318151183e+00
         - 8.2982674023221403e-01
         - -9.7218066687516064e-02
         - -3.2040250688467058e+00
         - -3.4237571695496145e+00
         - -4.4530409849949013e+00
         - 3.6715858598770570e+00
         - 1.4709450160120174e+00
         - 9.5382661226795196e-01
         - 1.3483101642305788e+00
         - -2.3748423266007341e+00
         - -8.7383885145262419e-01
         - 1.9529537427532093e-01
         - 1.7739891342133016e+00
         - -1.4018283307698425e+00
         - -2.9292822568873373e+00
         - -2.3731988882527841e+00
         - 2.4682714681196311e-01
         - -1.7165957993887209e+00
         - 3.6529771334154408e+00
         - 1.3191672040617926e+01
         - 5.5305700396026740e+00
         - 8.6514152727503912e+00
         - -4.7229281320063841e+00
         - -9.3612424862362111e+00
         - 3.4810754518019920e+00
         - 9.8810781553638485e+00
         - 1.8649496595682109e+01
         - 4.5100857857404666e+00
         - -6.5037049577679773e-01
         - -1.2240003245978284e-01
         - -9.9417311034572329e+00
         - -9.7943333322126358e-01
         - -3.2224345912026147e+00
         - -9.0078917210424014e-01
         - -1.2443831155197504e+00
         - 3.9446335648650355e-01
         - 6.1670290978471420e-01
         - 1.1003314763085930e+00
         - -1.2978035253571832e-01
         - -2.3784058779503185e+00
         - 4.2988770320943051e+00
         - -1.4783231627450157e+00
         - 1.6478696018571015e-01
         - -2.0416502680580370e-01
         - 1.9349819583333683e+00
         - 1.1443737916550052e+00
         - 1.4324685066365839e+00
         - 1.0295492449846897e+00
         - 4.5417772758307215e+00
         - 1.7181504475204756e+00
         - -1.8011846022533067e+00
         - -1.1986347015744372e+00
         - -1.1643146582045807e+00
         - 1.4106118945683219e+00
         - 4.1215078592582204e+00
         - -4.0822234660966714e+00
         - 1.0714698855500780e+01
         - 3.4235267361381254e+00
         - 3.3154239918281370e-02
         - -3.3743941171614789e+00
         - -8.3347603476351639e-01
         - 2.4775087350946023e+00
         - 4.7184006206690068e+00
         - 3.9642533476719322e-01
         - -1.3328364150694698e+00
         - 5.3047150196404502e-01
         - -2.2129563305843472e+00
         - 1.6124773061443296e+00
         - 3.6584927287577145e+00
         - -1.4574432388625982e+00
         - -1.1381109945358476e+00
         - -2.0779638375836202e+00
         - -7.3174537717447075e-01
         - -3.8971336663950989e-01
         - 3.2479303005722224e+00
         - 4.4559323437235330e+00
         - 1.4924612207210735e+00
         - 1.6067249701196666e+00
         - -5.1731532913997924e+00
         - -2.5849052807202675e+00
         - -1.7885751621909057e-02
         - 7.4432725939754647e+00
         - 5.6710263086738411e-01
         - -5.4484871234838295e-01
         - 1.9260882329018607e+00
         - 1.6690848460120558e+00
         - -1.2214401361801718e+01
         - 6.7586171143595966e+00
         - -6.9419938247477930e-01
         - 2.4478353924731127e+00
         - 1.4640622642848966e+01
         - 3.9834921896905575e+00
         - 8.3170800159439662e-01
         - 2.2739126124186795e+00
         - 2.7458324004580881e-01
         - -3.0124307322876298e-01
         - 1.7415876650688027e+00
         - 7.0255903166260101e+00
         - -2.3658057477956440e+00
         - 4.6237142665278780e-01
         - 1.0750622581960634e+00
         - 4.5742306725517839e-01
         - 9.3531715088569045e-01
         - 4.5305879441613346e+00
         - -8.9784932229735848e-01
         - 1.1481262924260163e-01
         - -1.7116760238462483e-01
         - -2.2395017860748295e-02
         - 2.8540397005576219e+00
         - 1.7806930408872055e+00
         - 1.7242046496824641e+00
         - -4.4771745766887538e-01
         - -8.9795975403730421e-01
         - -3.0125015510125530e-01
         - -2.7026723513483679e+00
         - 7.1400905469933806e-01
         - -1.2693029186023268e+00
         - 5.9843986681716554e-01
         - 1.1986539954849418e+01
         - 8.4068899048851475e-01
         - 1.6635707277038028e+00
         - -5.6181542673936598e+00
         - 5.5854428291651115e-01
         - 9.4002606794244464e-02
         - 9.7277587240466834e-01
         - -9.4078935621054587e+00
         - -1.5166492050954385e+00
         - -2.2186275361505641e+00
         - -7.9802078794306108e-01
         - 2.8378999458051428e+00
         - -2.0365221375569904e+00
         - 2.0861131233908483e+00
         - 2.2028164941794883e+00
         - 8.3598062443284027e-01
         - -1.1519202852009654e-01
         - -9.1909787127935649e-01
         - 2.2397729247244382e+00
         - 9.5779727314696750e-01
         - 7.1486621093340041e-01
         - 1.4052648484902230e+00
         - 1.9699759863821997e-02
         - -2.5254093535266504e+00
         - -2.2108005770821260e+00
         - -7.2663369867207417e-01
         - -3.2451912516369612e+00
         - -1.3003681349333167e+00
         - -2.5023792789465840e+00
         - -2.8629983162251929e+00
         - -6.8356288044381722e-02
         - -2.7118182810693261e+00
         - 6.1499955679131233e+00
         - -4.1042528225621044e-03
         - -5.3641476305868163e-01
         - -9.4858603800571373e-01
         - 3.4195108804778189e+00
         - -1.9825116192635592e+00
         - -1.3465227897723822e+00
         - 2.8370659387386277e+00
         - 3.4431993792250776e-01
         - -1.3904864137663446e+00
         - 6.2800428754212212e-01
         - -2.3044347803810084e+00
         - 1.9188209948177652e+00
         - 1.7164164597839964e+00
         - -9.0330603242826857e-01
         - 1.6714055546939131e+00
         - 3.4052302566397274e-01
         - -1.5694662168120128e+00
         - 8.1242696743051290e+00
         - -4.3464093671346737e-01
         - -7.1729826201442703e-01
         - -1.0576382278311616e+00
         - -2.5666970312035886e-01
         - -1.6292564998239858e+00
         - -6.8928493396158552e-01
         - -5.3024291938862156e+00
         - -9.4696481510428843e+00
         - 1.0268899284879018e+00
         - -3.3257758274559879e+00
         - 4.5479740647083080e+00
         - -2.2703073876507052e-02
         - 1.8162699160242533e+00
         - -1.1347405021773724e+00
         - 8.2208081027631019e-01
         - 2.3423835444855063e+00
         - -5.3567607609114387e-01
         - 9.9164374984375314e+00
         - -5.4524202692722890e-01
         - -1.0113193140852759e+00
         - -6.6044974869140405e-02
         - -9.0843062512461592e-01
         - -1.0935789380257949e-01
         - -1.2445300910949901e+00
         - 7.2623749387481940e-01
         - 1.1651638268472424e+00
         - -4.4126247408470809e-01
         - -7.0420312058526289e+00
         - 4.1073839219172523e+00
         - -1.3974890076858344e+00
         - 5.5652047794950672e+00
         - -1.0916144220989189e+01
         - -4.1131866620078839e+00
         - 4.8051335551259466e+00
         - -4.8090046580134835e+00
         - 6.6358156952091605e+00
         - 1.6950863257432753e+00
         - -2.0960989773412206e-01
         - 2.6184487088001180e+00
         - 1.1781449675768660e+00
         - -2.2974880740268926e+00
         - 7.9692336735388947e-01
         - -2.0835111281134777e+00
         - -1.2788635466964859e+00
         - 6.5504045620905682e-01
         - 6.4746519632406141e-01
         - -5.0796349621334247e-01
         - 1.8752565261308902e+00
         - -3.8441233972555868e+00
         - 1.6813376012770411e+00
         - 2.7278134880458813e+00
         - -2.5822610369057744e+00
         - -1.1959712974676087e+00
         - -3.1592138017636868e+00
         - -3.8279391071519515e+00
         - 2.8747920019116879e+00
         - -1.1544062353267406e+00
         - 5.3872241779348490e-02
         - 7.0858588360449541e+00
         - 4.4270718292766253e-01
         - -9.7467259860326816e-01
         - 9.4711453881369989e-01
         - -5.4820306945978470e-01
         - -9.5642880251641338e-01
         - -1.3561179320595884e+00
         - 1.2035487640452178e-01
         - -4.0529888117031403e+00
         - 1.2479571708590946e+00
         - -2.5989353648195430e+00
         - -1.7119831153108875e-01
         - -6.3900142963058326e-01
         - 2.5498827688370129e+00
         - 1.5803976004218518e+00
         - 2.6002920661154114e+00
         - -1.5183066005654675e+00
         - 1.7922583761365889e+00
         - 7.4768634806834520e+00
         - -4.3560744065746043e-01
         - -2.9288330107617471e+00
         - -2.9076122583508686e+00
         - 8.0266382000276104e-01
         - -1.1094002765602671e+00
         - 8.8411896852107125e-02
         - -6.2015765377095917e+00
         - 9.0287153225843075e-01
         - 2.9084305588787340e-01
         - 6.1518392784474560e+00
         - -6.7952137316299444e-01
         - 8.5485767535666635e-01
         - 5.6520424142822314e+00
         - 3.7633435231156165e-01
         - 1.5030692447164102e+00
         - 2.7775516144690515e+00
         - -1.6409332563585512e+01
         - -9.2238661508817321e-02
         - 1.0120301569783863e-01
         - -5.4265568871932224e-01
         - -7.4548332048947969e+00
         - 1.8491005836661416e+00
         - 1.0952485166456312e+00
         - -1.8114820004310013e+00
         - 5.3280064171301182e+00
         - 2.1308235537311022e+00
         - -4.1035902111135796e+00
         - -1.3124605766649671e+00
         - 1.8863812814699732e+00
         - -5.6022841071524121e-01
         - 9.7935149276808864e-01
         - 2.6262778051301519e+00
         - 3.4324330378546843e+00
         - -3.9512754959591789e+00
         - -1.7922774584424028e+00
         - 6.4011881168731555e-01
         - -1.8586307949284402e+00
         - -8.6278988034687998e-01
         - 4.2721753992654515e-02
         - 1.7453883053969459e+00
         - 4.3526810057561494e-01
         - 2.6768918718618924e+00
         - 4.2534558303779590e+00
         - -3.8616940463872784e+00
         - 4.1036096525370329e+00
         - -4.7241711988911463e+00
         - 5.6051245754500041e+00
         - -4.4512409444496914e-01
         - -1.7643564350164258e+00
         - -1.8811220944260740e-01
         - -2.7031706450351933e+00
         - 1.3748477648548063e+00
         - -4.8728219978010694e+00
         - 4.0601926650453546e+00
         - 5.5820829801635585e-01
         - 4.0834003902952665e+00
         - 8.5059833584274891e-01
         - 9.2570610782204499e-01
         - 2.1727685851127490e+00
         - -2.6946942509878519e-01
         - -2.2848537721905915e+00
         - 1.2925528240247576e+01
         - 8.8549097289113698e-01
         - 1.1641562643498498e+00
         - 6.7369957471588027e-01
         - 8.4582428067017024e-01
         - 3.2612390484198786e+00
         - 2.3594145353006111e+00
         - 1.6214674145997965e+00
         - 3.3903573975554595e+00
         - 6.2291422959974811e+00
         - 2.9757408331380963e-02
         - 3.5728793010482840e+00
         - -2.0725554104234036e+00
         - 3.4977288396666344e+00
         - 9.5683523162887796e-01
         - -1.6628991760310834e+00
         - 5.6783308531498733e-01
         - 1.0157191013005267e+00
         - 2.4075853928242514e+00
         - 3.1672509200166923e+00
         - 5.2345783920682649e+00
         - -2.4040853044532318e+00
         - 5.9440369639997725e-01
         - -8.1407898628139286e+00
         - -1.0645625921795712e+00
         - 2.1101355750333823e+00
         - 2.1789336708569875e+00
         - 2.7828698905140312e+00
         - -2.6133939436218290e-01
         - -8.1580435575060528e-01
         - 3.3542757920293278e+00
         - -1.7665998819524709e+00
         - 4.2415682727861004e-03
         - -8.0270770770270472e-01
         - 5.0948677024941169e-01
         - 3.3555570874911673e+00
         - 5.5879484271344673e+00
         - 3.9419573221188036e+00
         - -8.7110279579602192e+00
         - -2.5836516680157573e-02
         - -4.7990680700523913e-01
         - 3.7443846255156288e-03
         - -3.3720576098063644e+00
         - -6.1827096266791115e-01
         - -1.2015707955288752e+01
         - -3.5704858493722278e+00
         - 2.8574831076520701e+00
         - -1.1540270403059688e-02
         - 9.7144671861783061e-01
         - 7.0013899711389516e-01
         - 5.7250804441299996e-01
         - -4.8582771492626287e-01
         - -1.9190346503615754e+00
         - 6.9986282913105811e+00
         - 3.6164031239236816e+00
         - 1.5760018580610369e-01
         - 7.1720492300566174e-01
         - 3.0828517191229426e-01
         - -3.3615277591071289e+00
         - -5.7049054110278146e+00
         - -2.9486711616590981e+00
         - 2.1295096805784117e-01
         - 4.1381559107498997e+00
         - -1.2055326698534665e+00
         - -3.4009111819141720e+00
         - -9.6389607678411549e-01
         - -6.4300649124434095e-01
         - 1.8417127772489981e+00
         - 3.3127211069956695e+00
         - -4.9139144540745539e-01
         - 8.6152589122689527e+00
         - 9.6667851377548608e-01
         - -5.9624976079555358e-01
         - -8.6996313313479448e+00
         - 9.1459097719552229e-01
         - -6.7654028964242725e+00
         - -3.1672271268537888e-01
         - 3.7545394875644345e+00
         - -3.8725020148575635e+00
         - 4.2574441772401634e+00
         - 7.0708346359225216e-01
         - -1.1817257701346753e-01
         - -2.2289997270557760e+00
         - -4.0556784082711914e+00
         - 4.5469680115813489e+00
         - 1.3450852073278963e+00
         - 6.7155053758223449e-01
         - 1.7510221518565028e+00
         - 5.3455915180173275e+00
         - 3.3930691476831547e+00
         - -1.8155002118365242e+00
         - -2.1019020138668107e+00
         - -5.6264906822316052e-01
         - -1.8542613909634340e+00
         - -1.9276041617591708e-01
         - -3.6249816227930776e-01
         - -5.2209780780330153e+00
         - 2.7198766991404533e-01
         - 1.4678091861403946e+00
         - -1.3464482300435590e+00
         - 4.7042344346198883e-01
         - 5.4343827235921294e-01
         - -9.2099444383150697e-01
         - 1.2450018920518948e+00
         - 1.3818871397385510e+00
         - -4.9736386408199973e-01
         - -6.8845593011681194e-01
         - -8.2341242204525089e-01
         - -7.4114552326114458e-01
         - 3.5491508665528175e+00
         - -7.6936401514425656e-01
         - -2.9914961592372258e-01
         - -1.0510858508767997e+00
         - -1.4162734238613195e+00
         - -9.2395313595941753e-01
         - 1.9343270119737421e-01
         - 2.5039281012495462e-01
         - 9.8741877606685236e-01
         - -5.2836763161239131e-01
         - 3.6114964291312623e+00
         - 1.1932637307766394e-01
         - -1.0457938060751328e+00
         - 2.2940352402661759e+00
         - 1.7204063718176579e+00
         - 9.8075372201836686e-01
         - -1.9443625299797052e+00
         - 6.3051851315417851e-01
         - 2.5460927564356415e+00
         - 3.1635302455319012e+00
         - -1.4434029931402450e+00
         - -1.2904650817009031e+01
         - -2.3941911356503445e+00
         - -1.3634545377723943e+00
         - 3.5926838802048717e+00
         - -1.2855511115625667e+01
         - 2.2165948450118420e-01
         - 4.4926810538881412e+00
         - -7.1830758372046493e+00
         - -4.2606888799788054e+00
         - -5.2414516974317960e-01
         - 1.2965078619088011e+01
         - 8.4352194351247389e-01
         - -1.2882501762093749e+01
         - 3.6025734705444368e+00
         - 3.1702358284457590e+00
         - 3.8202467877067705e+00
         - -6.6731252295787202e-01
         - -5.5146466111131742e-01
         - -6.7650631058311301e+00
         - -6.1335262182992150e+00
         - 4.8063587238554888e+00
         - 4.4090355973266770e-01
         - -1.4909030283039221e-01
         - 3.9697069303043897e-02
         - 1.1845846199000096e+00
         - -1.9428865404928184e+00
         - 2.9447608025682612e+00
         - 1.1380304388399769e+00
         - -7.1798556540461322e-01
         - 3.8279121420656803e-01
         - -1.1489166006866012e+00
         - 2.1268345912654589e+00
         - -6.3210600424065422e-01
         - 1.1486501083989324e+00
         - -1.0664313372882728e+00
         - -4.8820110247902537e+00
         - -9.7043163900553564e-02
         - -2.6502849413151919e-01
         - -4.1127360361833327e+00
         - -1.0878368737918366e+01
         - 3.1627860143687156e+00
         - 1.7216597507250140e+00
         - 7.3774259867277925e-01
         - 5.2310657702332897e+00
         - -6.8575701383918186e-01
         - -2.2946185722674914e-01
         - 2.0162225856138524e-01
         - -1.6251000881781601e+00
         - -2.3463308599935226e+00
         - -3.9920002849085490e-01
         - 2.4726862743546736e+00
         - -1.4728646271107055e+00
         - -1.3907729692030968e+00
         - -6.3281400201505272e-02
         - -2.8463216317641393e+00
         - -7.5542320224782431e+00
         - -6.1108040092516080e-01
         - -7.4072057010617753e-01
         - -7.2107241797131938e-01
         - -9.1623722347490305e-02
         - 2.9756008599015633e+00
         - 1.1427896577837948e+00
         - 4.1652730682620498e-01
         - 8.1688155724451567e-02
         - -1.6858936282107895e+00
         - -4.7640564766433622e+00
         - 2.8571999608397007e+00
         - -1.1795055998529613e+00
         - -1.9956314907389934e+00
         - 2.2318687894130851e+00
         - -8.5218215680222131e-01
         - 2.4592000000000001e+00
         - -4.4920266403725790e+00
         - -7.5325722325812547e+00
         - 1.3935923575020044e+00
         - 2.4487384875081011e+00
         - 6.3379380287267828e-01
         - -6.5052013870616443e-01
         - -2.4805175681999772e+00
         - -7.5423932511495435e+00
         - 2.4811272812191398e-01
         - -1.5973545876798179e+00
         - -3.8680010475851700e-01
         - 8.0130220652922413e-01
         - -3.3725686691899943e+00
         - -1.7522345786821132e+00
         - -1.6021333718544279e+00
         - -2.0142316241259697e+00
         - -2.6789298363298926e+00
         - 5.4724235403116435e+00
         - 3.5596820581666999e+00
         - -2.9901862621821946e+00
         - -1.0097689023505454e+01
         - -2.4057310402605201e+00
         - -1.4795749346698939e+00
         - 7.7801438830546221e+00
         - 9.5528708801474682e-02
         - 1.7219628288784690e+00
         - -2.5022667330926733e+00
      -
         - 1.2193442896611263e+01
         - -1.8129583580966635e+00
         - -7.0529788551374017e-01
         - 4.8141928375995063e-01
         - -6.9595277447735127e-01
         - 2.0571559683449561e+00
         - -3.0071813961686154e+00
         - -1.2732934667856850e+00
         - -4.2794442060097931e-01
         - 1.2142388284787891e+01
         - -1.1634628613929199e+00
         - -2.1258291182421893e-01
         - 8.8396608955265443e-01
         - 3.4429889333049264e+00
         - 9.4611603638621151e+00
         - -3.9841133446127373e+00
         - 1.6464507599326502e+01
         - -5.2066185501066398e-01
         - 3.9814485806913563e-01
         - -1.1633962113171079e+00
         - -1.1161760949268980e+00
         - -8.3177610004112112e-01
         - 2.7696426380022778e+00
         - -9.2365541412504581e-01
         - -6.1543499997891549e-01
         - 9.1957468483546700e-01
         - -1.7135594194719510e+00
         - 5.6593769944693797e+00
         - -1.5285436626984024e+00
         - 8.9159835562924972e-01
         - -7.5254569894364520e+00
         - 4.5461335734087811e+00
         - 8.7566920351840183e-01
         - -3.4906406372647081e-01
         - 4.1431217059515602e-01
         - 1.7090306568600446e+00
         - 2.9739082105060627e-01
         - -3.1644669157590877e+00
         - -8.1494328723464837e-01
         - -1.0413793220027729e+00
         - 5.0645224765470342e-01
         - -1.2192111215729701e+01
         - 1.2075935329092742e+00
         - -1.3853054200139021e+00
         - -2.4318165477843658e+00
         - -7.8726080868862736e-01
         - 4.2768643794602318e-01
         - -1.1627624698537113e+00
         - 1.3592083860674422e+00
         - 1.9988625416363279e+00
         - -1.3656325468151980e+00
         - 6.4858169706549145e+00
         - -4.1051407240609084e-01
         - -3.2757505537742598e-01
         - 1.4729868300443924e+01
         - 6.0197335065401902e-01
         - 2.6406272565658035e+00
         - -1.2024532646998818e+00
         - -1.5638024571038711e+00
         - 3.5861234534940305e+00
         - -1.2941015540564083e+00
         - -7.3189333772414011e-01
         - -7.5079295024388530e+00
         - 5.6203355917180033e+00
         - 1.6832872336115048e+00
         - -6.2059498214764797e-01
         - 4.7773727733241751e+00
         - 6.1594013732869684e+00
         - -1.2010990989324527e-01
         - -2.4972649928670454e+00
         - 6.1652714822045152e+00
         - -3.3634841857071653e+00
         - 1.2032442117223657e-01
         - -6.0328592237943923e-01
         - -5.6955166262606360e-01
         - -9.7956044953054322e-01
         - 4.1824078299825573e-01
         - 8.7901264560324233e-01
         - 1.4000221234668495e-01
         - -1.7009823846574741e+00
         - -1.2184600783930108e+01
         - -2.8157194014619193e+00
         - -5.7939498089837627e-01
         - -4.4825730362360461e-01
         - -1.4277527144539057e+00
         - -1.2476377509623959e+00
         - -3.5862250305211441e+00
         - 3.1005659830064863e-01
         - 3.3395724289904538e+00
         - 9.3736496155839522e+00
         - 3.9653767108656035e-01
         - 2.6146969166522416e+00
         - 8.1575418423494579e+00
         - 5.6465809295715308e-01
         - 5.2402121254385903e-01
         - 1.1317747903353883e+00
         - -5.8964049879207081e-01
         - -2.4680506403269953e+00
         - 1.7377854743757276e-01
         - -9.0724380101822411e-01
         - 9.1210154205547045e-01
         - 2.1035691698277614e+00
         - -1.1977419306819392e-02
         - 8.7862486512250770e-01
         - 1.1460579984555825e+00
         - 9.0421049447694413e-01
         - 1.3855012032635577e-01
         - 1.7490884357262559e-01
         - 4.4393668552193172e-01
         - -1.3029326659897724e+00
         - 1.2507846940029382e-01
         - -6.1000387213645102e-01
         - 7.8928490972223697e-01
         - -1.5644970428933469e-01
         - -4.0411165003591147e+00
         - 3.0265224506620664e-01
         - 2.9809086304768826e+00
         - 2.7507785250061993e+00
         - -2.4396994097302236e+00
         - 1.1734984013172383e+00
         - -2.4473422683359281e-02
         - 1.3109406001605406e+00
         - 1.7749335031797071e+00
         - 1.9487895170787000e+00
         - -2.4447921634881187e-02
         - 4.0494237044086807e+00
         - 4.5308519631324318e+00
         - -5.6092764066113041e+00
         - 1.8246075072006527e+00
         - -6.6436497474252878e+00
         - 1.1504109421432251e+00
         - -6.5332709532651716e+00
         - 4.1863243369307979e-01
         - 2.7953814329061286e+00
         - -4.0043572722539467e-01
         - 3.8348866236803070e+00
         - -3.2942648273365288e-01
         - 1.1534600734435853e-01
         - 3.2245561283292563e+00
         - 3.6143014127286106e+00
         - -1.1941217797731399e+01
         - -1.7985323665991010e-02
         - -8.2381531101432037e-01
         - 2.9617074568160326e+00
         - 8.8129846124822653e-01
         - -1.9471567692639904e+00
         - 6.1058879694709178e-01
         - -3.5717902720281813e-01
         - 3.7461812292693256e-02
         - -2.0014571121785929e+00
         - -1.7268790151945668e+00
         - 3.6978356477200713e-01
         - 4.1854307278122727e-01
         - -7.8211536607225840e-01
         - 7.4589756116795556e+00
         - -6.9247612472525333e-01
         - -6.2876870924206130e-01
         - -6.7271478255913686e-01
         - 4.0220380729739151e+00
         - -6.5811338740100844e-01
         - -3.3545433509773859e+00
         - -3.9625587809593088e-01
         - -5.5641095736042734e-01
         - 2.6363611646842422e+00
         - -9.5784153917333392e-01
         - -7.3156011313113045e-01
         - 1.9495657497171621e+00
         - -9.1091916216068425e-01
         - 5.4430508055215725e+00
         - -2.4403292190051804e-01
         - 6.6766627260995637e-01
         - 2.7336988517156788e+00
         - 6.0139098222716036e-01
         - -4.0597078575244225e+00
         - -3.4017313991709406e+00
         - 4.0483248842066990e+00
         - 1.3992460977646994e+00
         - -4.3477435422351807e+00
         - 7.3150038190444844e-01
         - 1.5728953694514396e+00
         - 2.6765748762702906e+00
         - 3.4551947132276550e-01
         - 8.2491916918282238e-01
         - -2.8976118679220577e+00
         - -2.8430877097913987e-01
         - -2.9404216329756507e+00
         - -2.6928476207095553e+00
         - 2.4648321236832409e+00
         - 7.8167424438812610e-02
         - 1.4856252603320770e+00
         - -8.2329571295264958e-01
         - 2.4808629545177365e+00
         - -1.8817274733409848e+00
         - 3.6283208736322203e-01
         - 4.1914317703719162e+00
         - -4.9525221753676707e+00
         - -2.0098593716279614e+00
         - -7.4510308800574627e+00
         - 1.7626465973302925e+00
         - 1.4779435681204145e-01
         - 5.3387649752839614e+00
         - 2.2826539936340651e+00
         - 1.7252520758058210e+00
         - 6.8779979496751620e-01
         - 1.5291031124015355e+00
         - -6.5875470128139912e-01
         - -1.6270369395513035e-01
         - -3.8809631528943123e-01
         - 3.4145175565048336e-01
         - -1.4965628703022453e+00
         - -2.6774167803196987e+00
         - -4.2774582824696494e-01
         - -3.4332369750904679e-01
         - 6.0217247465420176e-01
         - -1.3111462986290707e+00
         - 1.6283679949322871e-01
         - -6.0465478524622995e-01
         - -1.2104749640218475e+00
         - -1.6481368166481879e+01
         - 1.1902610394096702e+00
         - 4.0117591921462878e+00
         - 1.2712811133581794e+00
         - -2.7028128903374364e+00
         - -5.9328974848183957e-01
         - -2.3916384678400942e+00
         - 1.3440338771772733e+00
         - 5.3269778397242507e-01
         - 1.3580149022852435e+00
         - 4.7577524925925339e+00
         - -2.3060028195137141e+00
         - 7.3817069037405647e-01
         - 5.6034706501636933e+00
         - -1.7749260349394396e+00
         - -2.1658411545954519e+00
         - 3.3666011720294313e+00
         - 9.9232627099311843e-01
         - 1.7730351662452315e+00
         - 6.3552778836534374e-01
         - -3.8732583071864990e-01
         - 9.1762543055500945e-01
         - -1.4199534090931876e+00
         - -9.6744314386595892e-02
         - -1.7630418825760437e+00
         - 4.0663097083344324e-01
         - 4.7747328680223120e+00
         - 6.3681978349797874e-01
         - -7.0173314656957579e+00
         - 5.6370773210165694e+00
         - 2.6928418639154739e+00
         - 4.5204206898926957e-01
         - -8.1054529679726994e-01
         - -3.7976109256503909e-01
         - 3.7951079072333094e-01
         - -8.7060469886139771e+00
         - 4.4017193441110147e-01
         - 1.3698177515050640e+00
         - 1.7627865020767453e+00
         - -2.7132221707207100e+00
         - 3.4056397740241047e+00
         - -1.9602735202453598e+00
         - -2.0143956015644302e+00
         - 7.4637026331940207e-02
         - -2.5976605821831406e+01
         - -7.4553954142594137e+00
         - -2.5211822840841704e+00
         - 2.3632493061333064e+00
         - -1.5622383387909666e-02
         - 1.5281924748765756e+00
         - -4.8060407313377294e+00
         - 6.4338105027731611e+00
         - -1.0563426901173107e+00
         - 4.5210701092500170e+00
         - 2.4753221159786016e+00
         - -4.8600348178409210e+00
         - 5.6346928992299752e+00
         - -2.0024566246895819e+00
         - -1.3226922301436099e+00
         - -4.5185294674872098e+00
         - -1.5816346987622261e+00
         - 1.2933005378535098e-01
         - -4.0985602615054475e+00
         - -2.4659819171674648e+00
         - -1.9365100177362904e+00
         - -1.7189706486988177e+00
         - 4.9508595701887916e+00
         - 5.5360608602678651e-01
         - 1.1578787737223598e-01
         - -9.3797236402016892e-01
         - -1.9954204691852202e+00
         - 5.7800673018745954e+00
         - -6.4735350817804393e-01
         - 6.0540935306899513e-01
         - -1.9481791543000495e+00
         - 7.6405064932020199e+00
         - -2.0306161133659475e+00
         - 5.6142664386873598e-01
         - -6.1782204962386156e-01
         - 3.4162050456848796e+00
         - 1.8194185104009120e-01
         - 4.5228536466511207e+00
         - 1.7423851774509287e+00
         - -5.5612107624989171e-01
         - 1.7091726405756098e+00
         - -8.1258374286289836e-01
         - 1.2650650565762001e+00
         - -2.4594256253111428e+00
         - -3.7709368700092183e-01
         - 2.4451132037309184e+00
         - 8.5454670477411820e-01
         - -1.8112639819461540e-02
         - 5.8245404516675792e-01
         - -2.7091474285548047e+00
         - -1.4091464854218934e+00
         - -9.6501161986853479e-01
         - -1.4696404846010731e+00
         - 1.3116425879660337e-01
         - -1.6810349681639132e+00
         - -7.6463342372308745e+00
         - -4.9355981942746485e+00
         - -4.7675750173695661e+00
         - 1.0674558323739625e+01
         - 1.4369205247400343e+00
         - 1.9003605267706996e+00
         - 3.1818989231306594e+00
         - 3.8042094871110610e-01
         - -3.3367286317519862e+00
         - -1.7934533904829133e+00
         - -1.7318336729876180e+00
         - -2.9941397428876568e+00
         - -3.6550848607931195e+00
         - -1.3724581008784140e+00
         - -4.3340627970659423e-01
         - -1.0978536813367867e+00
         - 4.2863235462676563e-01
         - 1.9153015723833078e+00
         - 7.6646820551980746e+00
         - 2.6189299970854054e+00
         - -2.6207137708279280e+00
         - -2.7477382773825685e+00
         - -2.9036219942289859e-01
         - -1.5923833995227960e-01
         - 4.0764284924629486e+00
         - -6.6576237693655820e+00
         - 8.3793514914554768e-01
         - 5.4961337311624225e-01
         - 1.9506436633815754e+00
         - -1.1819637184831873e+00
         - -2.2305434887866124e-01
         - 8.3964496085742413e-01
         - 8.9730262406724492e-01
         - 1.0932853501843323e+00
         - -2.3198999839216068e+00
         - 4.2844037034148545e+00
         - -1.4781462900871802e+00
         - 1.1205081831984647e+00
         - -1.1979750442482242e+00
         - 1.1656030750545536e+00
         - -8.6092267975467551e-01
         - 1.5687985237742302e-01
         - -1.8720050297975632e-03
         - -1.8534814698561479e+00
         - -1.6235492725325553e+00
         - -6.0395337545068295e-01
         - 3.1616469418374225e+00
         - -2.6643422723116892e+00
         - 3.8854565644269146e-02
         - -1.0996407282628688e+00
         - 3.4968218836725193e+00
         - 1.3629961570675890e+00
         - -3.3038881460366532e-01
         - 5.4503458594462444e+00
         - -3.8532058240175937e-01
         - 6.3713398498757767e-01
         - -2.9460224156399826e+00
         - -8.5354145160887007e-01
         - 5.7441302092534252e-01
         - 5.1943802858458354e-01
         - -2.6074372161667827e+00
         - 2.1947636790930867e+00
         - 6.8100513074830860e-01
         - -2.4245013094270407e+00
         - 1.8473263190547279e-01
         - 2.3069288082914881e+00
         - 2.6815274045842574e-01
         - -5.4166155120355552e-01
         - -8.6417843613959078e-01
         - -8.1723839328450743e-01
         - 8.0359027201480302e+00
         - -3.5269371168643633e+00
         - 7.4240861677814216e+00
         - 1.8679570413422148e+01
         - 6.1150714249344484e-01
         - 2.2104976959705880e-01
         - 6.4641465446857371e-01
         - -2.1014852105937196e+00
         - 1.8650566635360797e+00
         - 1.3527757707907138e+00
         - -2.7771624078137593e+00
         - -1.3988917819655899e+00
         - 5.6169404347506742e+00
         - 3.6157903986094952e-01
         - -6.4686731947310783e-01
         - 6.1227117960429478e+00
         - 6.1486007377797609e+00
         - -2.8396817276006647e+00
         - -7.2062072350480469e-02
         - 1.0107618046052584e+00
         - 4.2190326708481090e+00
         - 2.8831880274125599e+00
         - -5.7834630999038528e-01
         - -2.8038481425864523e+00
         - 1.3957055864411181e+00
         - 1.1295193683492610e+00
         - 6.4418065686871251e-01
         - 6.9007971415087965e-01
         - -5.6471662680667645e-01
         - -4.7554370239583292e+00
         - 8.2161573337602523e-01
         - -6.2365025478872349e-01
         - -1.9742845422824156e+00
         - -2.2003094583553215e+00
         - -2.2061229410396654e+00
         - -3.6013156851893835e+00
         - 2.1867743187812207e+00
         - 2.1951247561333331e+00
         - 6.1957675859598211e+00
         - -1.9334571075471430e-02
         - 4.3397564292049875e+00
         - 6.1151927247394866e+00
         - -1.4075449662934201e+00
         - -1.2998990604399427e+00
         - -1.2015824462183948e+00
         - 3.4687189759686932e-01
         - -2.4996558187879576e+00
         - 2.8623287733043443e+00
         - -1.6869705269960702e+00
         - 9.3181815823657110e-01
         - -2.9509744452682274e-01
         - 1.4791973625231010e+00
         - 4.7802262223355574e-01
         - -9.9967459492202781e-01
         - 3.8484811890685389e-01
         - 1.7902772859250077e-01
         - 2.0601220337641934e-01
         - 2.2858620496287942e+00
         - -1.5644610943336462e-01
         - 2.8366351119638851e+00
         - 1.3722549085099929e+00
         - -2.3636803420665906e+00
         - 1.2088054772626005e+00
         - 2.0152006964451803e+00
         - 2.0392386748987330e+00
         - 2.7681288817097638e+00
         - -1.4355078990121233e+00
         - 6.1104407828680685e-01
         - 1.0689738398179022e+01
         - -2.1907416257028602e+00
         - -2.1722978046664791e+00
         - 5.4666335662961563e-01
         - -1.0304879666929954e+00
         - -8.3770309955051625e-01
         - -3.1970625028765515e-01
         - 1.8153255598392199e+00
         - 7.4042185992670113e+00
         - -1.3645271657889808e+00
         - 3.8938823209596174e-01
         - -3.5172796510645532e+00
         - -3.6348644338856684e-01
         - 1.3246323185183494e+01
         - 9.1068378887331114e-01
         - -2.1851020521163846e+00
         - -3.3434596166001018e-01
         - 4.1214865625177008e+00
         - -7.0183005893234149e+00
         - -1.1375335825744678e-01
         - -9.7027405238425291e-01
         - 2.5778290840899021e-01
         - -1.5260429204440658e+00
         - 2.8556322866858634e+00
         - 2.8430608082084907e+00
         - 1.1438072220707776e+00
         - 1.1936631748104012e-01
         - 2.0039178011976104e+00
         - -1.3196779617015233e+01
         - -2.5412447469907984e+00
         - 6.5202943963622167e-03
         - 1.6747341785234773e+00
         - -3.6470548595868832e+00
         - -3.6216062609997306e+00
         - 2.3678338947090665e+00
         - -1.0680357773225282e+00
         - 7.4631343505444043e+00
         - -1.2524884069663815e+00
         - 4.9424179031185442e+00
         - -1.4753703358384365e+00
         - 5.4306405369613060e+00
         - -1.1884685988860233e+00
         - -4.9236336023511740e+00
         - 5.6148535985526715e+00
         - -1.4596778574613443e+00
         - 8.9306408603274023e-01
         - -2.6270505812329370e-01
         - -2.7413272951543277e+00
         - -2.1938725120704365e+00
         - -7.4053398613719921e+00
         - -2.0401638556387058e+00
         - 3.1269692477799067e+00
         - -9.8958875467863550e+00
         - 2.5852309070858097e+00
         - 1.9744428182511755e+00
         - 2.3446214777818870e+00
         - -8.1146900524534660e-01
         - -2.8433857269327785e+00
         - 1.6285586855388137e+00
         - -9.0107946585761345e-01
         - 5.9868639971832172e-01
         - 1.0203802951677050e+00
         - 6.3941927424828400e+00
         - -7.1247372726788016e-01
         - 3.3664703585301969e-01
         - -1.7512593163783552e+00
         - 4.2439801758367846e-01
         - 1.6610211032418407e+00
         - 2.4892226613181263e+00
         - 6.8967486553129420e-01
         - 9.3970118611416042e-01
         - 1.3202218966171055e+01
         - -9.1271263020258481e-02
         - 1.2801067627090665e+00
         - -2.3161796112700648e+00
         - -3.3292870495137223e+00
         - 8.8216860975767897e-01
         - -2.9070677162573193e+00
         - 1.0676343826651586e+00
         - 2.8761900228653423e+00
         - -1.9097392289855315e+00
         - -8.6993447015390366e+00
         - -9.6340337021911493e-01
         - -2.9996477970687190e+00
         - -2.6302020874156757e+00
         - -1.2292743096490004e+00
         - -2.9242889539736967e+00
         - -1.0644133304346735e+00
         - -1.3241951501416855e+01
         - 5.3528047037657531e+00
         - -9.4301360312655569e-01
         - -1.0746193687030996e+00
         - 4.1341187336565408e+00
         - 2.4083034349044334e+00
         - -3.6206785910689812e+00
         - 3.8656431670400060e-01
         - 2.2995998324228650e-01
         - -2.0110677104232511e+00
         - -1.9861780300168594e+00
         - -1.6758289705643703e+00
         - 1.9932878539429905e-01
         - -1.4484131712247086e+00
         - -3.8735869457285577e-01
         - -1.0420236471534043e+00
         - 4.7465419680182857e+00
         - -2.4225969399710205e+00
         - 1.3820140180902105e+00
         - 4.3610349068320142e-01
         - -2.6771467080461111e+00
         - 1.7682592175111744e+00
         - -2.3272061329511642e+00
         - -1.8396774205772350e+00
         - 3.3530533827553066e+00
         - -1.7931821393850005e+00
         - -2.2027029972072887e+00
         - -4.6761584635522180e-01
         - 1.0447353954715370e+00
         - 1.8308664853192114e-01
         - -2.4484912414039002e+00
         - -7.7052121711391164e-01
         - 8.9623891320819504e-01
         - -1.3550343100595510e+00
         - -1.5782145804881620e+00
         - -1.7586320153485646e+00
         - 8.7357660070854670e-01
         - 2.5291568006906231e+00
         - -7.7617820792159486e-01
         - -5.4262653918312083e+00
         - 4.5160016537291945e+00
         - 3.0088179312814729e+00
         - 2.7256649836796889e+00
         - -7.9803809642186829e-01
         - 5.7303410507571295e-01
         - -1.6333265097119707e+00
         - -3.3647639025999685e+00
         - -1.8589529736611825e+00
         - -3.6609127472439211e+00
         - -1.0633664751980509e-01
         - -2.7116600742730426e+00
         - -4.3050577564419512e-01
         - -2.5233852457648802e+00
         - -5.6250467738959742e+00
         - -7.0952080722398170e-01
         - -6.0708831631721143e+00
         - -1.7251339635324991e+00
         - -2.4886634183689709e+00
         - 2.4124766610287844e+00
         - 1.3384720578383393e+00
         - 1.7369064693125122e+00
         - -7.5161657505330650e+00
         - 2.9153369211002711e+00
         - -1.4047323908286083e-01
         - 1.7996991403960167e+00
         - 1.2111753428359764e-01
         - -5.4360390947532533e+00
         - 2.6542495360987060e+00
         - -2.0134252070700769e+00
         - 4.1310480321009022e+00
         - -5.6248727039186353e+00
         - -1.6181439784277654e+00
         - 1.2099789390330981e-01
         - -1.9683263062328557e-01
         - -5.2649145935789949e+00
         - -4.2032745837228829e+00
         - -2.7596646407798278e+00
         - 8.7116803956944118e+00
         - 4.1857293335454637e-01
         - -2.4228867110816648e+00
         - -6.3478927524763418e-01
         - 4.2377240561090996e+00
         - 1.2279827394882390e+00
         - 9.1484765383676503e-01
         - -9.6598251826447556e-01
         - -1.9491107096153659e+00
         - 9.3846428656619452e+00
         - 2.4530895206955812e+00
         - -3.5917291383427685e-01
         - -4.2597002747514989e-01
         - 3.1756373437825740e+00
         - 6.0977837906156196e-01
         - 3.3839883771494024e+00
         - 1.7303680886292021e+00
         - -1.3915196948838604e+00
         - 2.2795130422975309e+00
         - -8.2298543312325712e-01
         - 1.3218342417081117e+00
         - -8.4647479319706209e-01
         - 1.9690622625844916e+00
         - 1.7494958953466031e+00
         - -4.9095637752994632e+00
         - -1.3224933081608592e+00
         - -3.7025639000078625e-01
         - -3.2152364849333033e+00
         - -2.0134901971478345e+00
         - -1.2870490255494125e+00
         - -2.9049013618710675e+00
         - -1.7149687558937177e+00
         - -1.7121357914822888e+00
         - -6.4364175497101002e+00
         - -4.9572940503998417e+00
         - -2.5101055038967979e+00
         - 2.3330387316307446e+00
         - 1.4430142658068599e+00
         - 1.9036764672610993e+00
         - 3.2099292721680373e+00
         - -5.7779721055903444e-01
         - -1.7680890850309265e+00
         - -7.4433481494714968e+00
         - -9.3265414440786536e+00
